{"learner":{"attributes":{"best_iteration":"99","best_ntree_limit":"100","scikit_learn":"{\"use_label_encoder\": null, \"n_estimators\": 100, \"objective\": \"binary:logistic\", \"max_depth\": null, \"max_leaves\": null, \"max_bin\": null, \"grow_policy\": null, \"learning_rate\": null, \"verbosity\": null, \"booster\": null, \"tree_method\": null, \"gamma\": null, \"min_child_weight\": null, \"max_delta_step\": null, \"subsample\": null, \"sampling_method\": null, \"colsample_bytree\": null, \"colsample_bylevel\": null, \"colsample_bynode\": null, \"reg_alpha\": null, \"reg_lambda\": null, \"scale_pos_weight\": null, \"base_score\": null, \"missing\": NaN, \"num_parallel_tree\": null, \"random_state\": 42, \"n_jobs\": null, \"monotone_constraints\": null, \"interaction_constraints\": null, \"importance_type\": null, \"gpu_id\": null, \"validate_parameters\": null, \"predictor\": null, \"enable_categorical\": false, \"feature_types\": null, \"max_cat_to_onehot\": null, \"max_cat_threshold\": null, \"eval_metric\": null, \"early_stopping_rounds\": null, \"callbacks\": null, \"classes_\": [0, 1], \"n_classes_\": 2, \"_estimator_type\": \"classifier\"}"},"feature_names":[],"feature_types":[],"gradient_booster":{"model":{"gbtree_model_param":{"num_parallel_tree":"1","num_trees":"100","size_leaf_vector":"0"},"tree_info":[0,0,0,0,0,0,0,0,0,0,0,0,0,0,0,0,0,0,0,0,0,0,0,0,0,0,0,0,0,0,0,0,0,0,0,0,0,0,0,0,0,0,0,0,0,0,0,0,0,0,0,0,0,0,0,0,0,0,0,0,0,0,0,0,0,0,0,0,0,0,0,0,0,0,0,0,0,0,0,0,0,0,0,0,0,0,0,0,0,0,0,0,0,0,0,0,0,0,0,0],"trees":[{"base_weights":[3.2870764E-1,-1.7016432E0,1.2548946E0,1.995083E0,-1.9996033E0,1.1189026E0,1.9989152E0,1.0819638E0,1.995089E0,1.0602155E0,1.9911209E0,1.0509667E0,1.9785522E0,8.0062425E-1,1.0904766E0],"categories":[],"categories_nodes":[],"categories_segments":[],"categories_sizes":[],"default_left":[1,1,1,0,0,1,0,1,0,1,0,1,0,0,0],"id":0,"left_children":[1,3,5,-1,-1,7,-1,9,-1,11,-1,13,-1,-1,-1],"loss_changes":[3.2693889E4,6.0031797E3,1.2057852E3,0E0,0E0,3.2461816E2,0E0,1.8949023E2,0E0,7.8319336E1,0E0,9.18418E1,0E0,0E0,0E0],"parents":[2147483647,0,0,1,1,2,2,5,5,7,7,9,9,11,11],"right_children":[2,4,6,-1,-1,8,-1,10,-1,12,-1,14,-1,-1,-1],"split_conditions":[-9.575236E-2,-1.180271E0,3.7786102E-1,5.985249E-1,-5.99881E-1,6.0269606E-1,5.996746E-1,5.260403E-1,5.985267E-1,2.3362699E0,5.973363E-1,-3.1469408E-1,5.935657E-1,2.4018729E-1,3.27143E-1],"split_indices":[8,8,1,0,0,20,0,2,0,7,0,9,0,0,0],"split_type":[0,0,0,0,0,0,0,0,0,0,0,0,0,0,0],"sum_hessian":[1.738375E4,5.4455E3,1.193825E4,4.0575E2,5.03975E3,1.00955E4,1.84275E3,9.68925E3,4.0625E2,9.465E3,2.2425E2,9.37275E3,9.225E1,1.2805E3,8.09225E3],"tree_param":{"num_deleted":"0","num_feature":"30","num_nodes":"15","size_leaf_vector":"0"}},{"base_weights":[2.42296E-1,-1.3176559E0,9.189588E-1,1.5454615E0,-1.5485413E0,8.1058496E-1,1.5480723E0,7.814446E-1,1.5454656E0,7.643323E-1,1.5427637E0,8.763849E-1,7.100723E-1,8.709918E-1,1.6308032E0,4.7279805E-1,7.623403E-1],"categories":[],"categories_nodes":[],"categories_segments":[],"categories_sizes":[],"default_left":[1,1,1,0,0,1,0,1,0,1,0,1,1,0,0,0,0],"id":1,"left_children":[1,3,5,-1,-1,7,-1,9,-1,11,-1,13,15,-1,-1,-1,-1],"loss_changes":[1.7391445E4,3.297537E3,7.822051E2,0E0,0E0,2.0875635E2,0E0,1.2170947E2,0E0,5.5479492E1,0E0,1.0811035E1,7.680591E1,0E0,0E0,0E0,0E0],"parents":[2147483647,0,0,1,1,2,2,5,5,7,7,9,9,11,11,12,12],"right_children":[2,4,6,-1,-1,8,-1,10,-1,12,-1,14,16,-1,-1,-1,-1],"split_conditions":[-9.575236E-2,-1.180271E0,3.7786102E-1,4.6363848E-1,-4.6456242E-1,6.0269606E-1,4.6442172E-1,5.260403E-1,4.636397E-1,1.1415449E-1,4.6282914E-1,7.051984E-1,1.8412343E-1,2.6129755E-1,4.8924097E-1,1.4183941E-1,2.287021E-1],"split_indices":[8,8,1,0,0,20,0,2,0,8,0,24,8,0,0,0,0],"split_type":[0,0,0,0,0,0,0,0,0,0,0,0,0,0,0,0,0],"sum_hessian":[1.6473867E4,4.9836978E3,1.1490169E4,3.7147623E2,4.6122217E3,9.803641E3,1.6865286E3,9.431706E3,3.719338E2,9.226328E3,2.0537843E2,3.0051758E3,6.2211523E3,2.9859844E3,1.919121E1,1.1248535E3,5.096299E3],"tree_param":{"num_deleted":"0","num_feature":"30","num_nodes":"17","size_leaf_vector":"0"}},{"base_weights":[1.8695481E-1,-1.1439569E0,7.0501864E-1,1.3413779E0,-1.34457E0,6.0793674E-1,1.3440834E0,5.823871E-1,1.3413819E0,5.674826E-1,1.338589E0,5.5965793E-1,1.4207109E0,5.803021E-1,2.3456682E-1],"categories":[],"categories_nodes":[],"categories_segments":[],"categories_sizes":[],"default_left":[1,1,1,0,0,1,0,1,0,1,0,1,0,0,0],"id":2,"left_children":[1,3,5,-1,-1,7,-1,9,-1,11,-1,13,-1,-1,-1],"loss_changes":[1.0224413E4,2.073412E3,6.613955E2,0E0,0E0,1.7289233E2,0E0,1.0020044E2,0E0,5.7864258E1,0E0,5.830591E1,0E0,0E0,0E0],"parents":[2147483647,0,0,1,1,2,2,5,5,7,7,9,9,11,11],"right_children":[2,4,6,-1,-1,8,-1,10,-1,12,-1,14,-1,-1,-1],"split_conditions":[-9.575236E-2,-1.180271E0,3.7786102E-1,4.0241337E-1,-4.0337104E-1,6.0269606E-1,4.0322503E-1,5.260403E-1,4.024146E-1,2.3362699E0,4.015767E-1,1.0411696E0,4.262133E-1,1.7409064E-1,7.037005E-2],"split_indices":[8,8,1,0,0,20,0,2,0,7,0,25,0,0,0],"split_type":[0,0,0,0,0,0,0,0,0,0,0,0,0,0,0],"sum_hessian":[1.4826625E4,4.153928E3,1.0672696E4,3.0983167E2,3.8440967E3,9.266892E3,1.4058053E3,8.956679E3,3.1021292E2,8.785274E3,1.714041E2,8.70708E3,7.819391E1,8.1864346E3,5.2064594E2],"tree_param":{"num_deleted":"0","num_feature":"30","num_nodes":"15","size_leaf_vector":"0"}},{"base_weights":[1.4545882E-1,-1.0463525E0,5.469794E-1,1.2262218E0,-1.2300277E0,4.590318E-1,1.2294466E0,4.3383285E-1,1.1497384E0,4.226253E-1,1.220712E0,9.807149E-1,1.2316402E0,2.0088384E-1,4.4777197E-1,1.1415155E0,6.298348E-1,1.2352471E0,4.5490226E-1,1.7752582E-1,1.2185498E0,4.4266063E-1,1.2068348E0,4.774773E-1,1.1629847E0,4.206532E-1,1.2165362E0],"categories":[],"categories_nodes":[],"categories_segments":[],"categories_sizes":[],"default_left":[1,1,1,0,0,1,0,1,1,1,0,1,1,1,1,1,1,0,0,0,0,0,0,0,0,0,0],"id":3,"left_children":[1,3,5,-1,-1,7,-1,9,11,13,-1,15,17,19,21,23,25,-1,-1,-1,-1,-1,-1,-1,-1,-1,-1],"loss_changes":[6.2983384E3,1.385987E3,5.903269E2,0E0,0E0,1.513158E2,0E0,7.371362E1,3.033905E0,4.6193237E1,0E0,5.200882E0,5.3710938E-3,1.9923168E1,2.8386597E1,4.5288086E-1,3.808669E0,0E0,0E0,0E0,0E0,0E0,0E0,0E0,0E0,0E0,0E0],"parents":[2147483647,0,0,1,1,2,2,5,5,7,7,8,8,9,9,11,11,12,12,13,13,14,14,15,15,16,16],"right_children":[2,4,6,-1,-1,8,-1,10,12,14,-1,16,18,20,22,24,26,-1,-1,-1,-1,-1,-1,-1,-1,-1,-1],"split_conditions":[-9.575236E-2,-1.180271E0,3.7786102E-1,3.6786655E-1,-3.690083E-1,1.5750916E-1,3.6883402E-1,6.0269606E-1,2.3790579E-1,-3.3601725E-1,3.662136E-1,5.8455604E-1,4.3505412E-1,2.3362699E0,5.260403E-1,-8.0438085E-2,6.0636616E-1,3.7057415E-1,1.3647069E-1,5.325775E-2,3.6556497E-1,1.327982E-1,3.6205044E-1,1.432432E-1,3.4889543E-1,1.2619597E-1,3.6496085E-1],"split_indices":[8,8,1,0,0,26,0,20,26,28,0,17,14,7,2,27,0,0,0,0,0,0,0,0,0,0,0],"split_type":[0,0,0,0,0,0,0,0,0,0,0,0,0,0,0,0,0,0,0,0,0,0,0,0,0,0,0],"sum_hessian":[1.3159464E4,3.315788E3,9.843676E3,2.4752594E2,3.0682622E3,8.72144E3,1.122235E3,8.416028E3,3.0541248E2,8.299357E3,1.16670906E2,1.0392116E2,2.0149132E2,8.462417E2,7.4531157E3,6.9717766E1,3.420339E1,1.9997243E2,1.5188876E0,8.284022E2,1.783949E1,7.4048364E3,4.8278923E1,2.9113245E0,6.680644E1,2.6479433E1,7.7239537E0],"tree_param":{"num_deleted":"0","num_feature":"30","num_nodes":"27","size_leaf_vector":"0"}},{"base_weights":[1.12244934E-1,-9.856161E-1,4.2306426E-1,1.1540428E0,-1.1588379E0,3.4505033E-1,1.1581044E0,3.253902E-1,1.1552454E0,3.1409326E-1,1.1509507E0,3.076136E-1,1.2095344E0,4.0822163E-1,2.5986937E-1],"categories":[],"categories_nodes":[],"categories_segments":[],"categories_sizes":[],"default_left":[1,1,1,0,0,1,0,1,0,1,0,1,0,0,0],"id":4,"left_children":[1,3,5,-1,-1,7,-1,9,-1,11,-1,13,-1,-1,-1],"loss_changes":[3.9956978E3,9.5893945E2,5.2289136E2,0E0,0E0,1.310567E2,0E0,7.4783264E1,0E0,4.575415E1,0E0,3.7812927E1,0E0,0E0,0E0],"parents":[2147483647,0,0,1,1,2,2,5,5,7,7,9,9,11,11],"right_children":[2,4,6,-1,-1,8,-1,10,-1,12,-1,14,-1,-1,-1],"split_conditions":[-9.575236E-2,-1.180271E0,3.7786102E-1,3.4621286E-1,-3.476514E-1,6.0269606E-1,3.4743133E-1,5.260403E-1,3.4657365E-1,2.3362699E0,3.452852E-1,1.1415449E-1,3.6286032E-1,1.224665E-1,7.796081E-2],"split_indices":[8,8,1,0,0,20,0,2,0,7,0,8,0,0,0],"split_type":[0,0,0,0,0,0,0,0,0,0,0,0,0,0,0],"sum_hessian":[1.1707248E4,2.5826753E3,9.124572E3,1.9300389E2,2.3896716E3,8.250383E3,8.741898E2,8.0562905E3,1.9409203E2,7.9488984E3,1.0739188E2,7.8931255E3,5.5773006E1,2.5378179E3,5.3553076E3],"tree_param":{"num_deleted":"0","num_feature":"30","num_nodes":"15","size_leaf_vector":"0"}},{"base_weights":[8.510059E-2,-9.4550484E-1,3.242538E-1,1.1057351E0,-1.1119303E0,2.570771E-1,1.1109803E0,2.4052809E-1,1.1065755E0,2.3107684E-1,1.1011437E0,2.257335E-1,1.1350514E0,2.4225175E-1,-1.958554E-2],"categories":[],"categories_nodes":[],"categories_segments":[],"categories_sizes":[],"default_left":[1,1,1,0,0,1,0,1,0,1,0,1,0,0,0],"id":5,"left_children":[1,3,5,-1,-1,7,-1,9,-1,11,-1,13,-1,-1,-1],"loss_changes":[2.5938352E3,6.778877E2,4.5112732E2,0E0,0E0,1.10384155E2,0E0,6.2552795E1,0E0,3.6642212E1,0E0,3.0783203E1,0E0,0E0,0E0],"parents":[2147483647,0,0,1,1,2,2,5,5,7,7,9,9,11,11],"right_children":[2,4,6,-1,-1,8,-1,10,-1,12,-1,14,-1,-1,-1],"split_conditions":[-9.575236E-2,-1.180271E0,3.7786102E-1,3.3172053E-1,-3.335791E-1,6.0269606E-1,3.332941E-1,5.260403E-1,3.3197266E-1,2.3362699E0,3.3034313E-1,1.0411696E0,3.4051543E-1,7.2675526E-2,-5.8756624E-3],"split_indices":[8,8,1,0,0,20,0,2,0,7,0,25,0,0,0],"split_type":[0,0,0,0,0,0,0,0,0,0,0,0,0,0,0],"sum_hessian":[1.0521584E4,1.9811357E3,8.540448E3,1.482514E2,1.8328844E3,7.869792E3,6.7065625E2,7.7206694E3,1.4912248E2,7.638057E3,8.2612404E1,7.594417E3,4.3640324E1,7.1153276E3,4.7908905E2],"tree_param":{"num_deleted":"0","num_feature":"30","num_nodes":"15","size_leaf_vector":"0"}},{"base_weights":[6.31358E-2,-9.1794837E-1,2.4578848E-1,1.0717348E0,-1.0798405E0,1.8965735E-1,1.0785935E0,1.760945E-1,1.0723484E0,1.6608967E-1,9.074803E-1,1.625293E-1,1.0749723E0,5.951433E-1,1.1592005E0,2.1637082E-2,1.869E-1,6.7014056E-1,-7.144776E-1],"categories":[],"categories_nodes":[],"categories_segments":[],"categories_sizes":[],"default_left":[1,1,1,0,0,1,0,1,0,1,1,1,0,1,0,0,0,0,0],"id":6,"left_children":[1,3,5,-1,-1,7,-1,9,-1,11,13,15,-1,17,-1,-1,-1,-1,-1],"loss_changes":[1.7188405E3,4.860974E2,3.7779144E2,0E0,0E0,9.051834E1,0E0,5.4461075E1,0E0,2.3654129E1,7.2108383E0,2.5185959E1,0E0,5.0853024E0,0E0,0E0,0E0,0E0,0E0],"parents":[2147483647,0,0,1,1,2,2,5,5,7,7,9,9,10,10,11,11,13,13],"right_children":[2,4,6,-1,-1,8,-1,10,-1,12,14,16,-1,18,-1,-1,-1,-1,-1],"split_conditions":[-9.575236E-2,-1.180271E0,3.7786102E-1,3.2152045E-1,-3.2395217E-1,6.0269606E-1,3.2357806E-1,1.8903753E-1,3.217045E-1,2.3362699E0,6.224693E-1,-3.1469408E-1,3.224917E-1,4.3505412E-1,3.4776017E-1,6.491125E-3,5.6070004E-2,2.0104218E-1,-2.143433E-1],"split_indices":[8,8,1,0,0,20,0,11,0,7,0,9,0,14,0,0,0,0,0],"split_type":[0,0,0,0,0,0,0,0,0,0,0,0,0,0,0,0,0,0,0],"sum_hessian":[9.589609E3,1.5044918E3,8.0851177E3,1.1278043E2,1.3917114E3,7.5757397E3,5.0937784E2,7.462279E3,1.1346086E2,7.362788E3,9.949067E1,7.335233E3,2.7555449E1,4.5900806E1,5.3589867E1,1.0819777E3,6.253255E3,4.3876453E1,2.0243518E0],"tree_param":{"num_deleted":"0","num_feature":"30","num_nodes":"19","size_leaf_vector":"0"}},{"base_weights":[4.5786448E-2,-8.9844394E-1,1.8433712E-1,1.0466248E0,-1.0573012E0,1.3867475E-1,1.0556517E0,1.2781173E-1,1.0470945E0,1.2100956E-1,1.0475563E0,1.1791441E-1,1.1943048E0,1.1446707E-1,1.0447813E0],"categories":[],"categories_nodes":[],"categories_segments":[],"categories_sizes":[],"default_left":[1,1,1,0,0,1,0,1,0,1,0,1,0,0,0],"id":7,"left_children":[1,3,5,-1,-1,7,-1,9,-1,11,-1,13,-1,-1,-1],"loss_changes":[1.1611703E3,3.5203796E2,3.077926E2,0E0,0E0,7.245218E1,0E0,4.5354897E1,0E0,2.3835876E1,0E0,2.2879318E1,0E0,0E0,0E0],"parents":[2147483647,0,0,1,1,2,2,5,5,7,7,9,9,11,11],"right_children":[2,4,6,-1,-1,8,-1,10,-1,12,-1,14,-1,-1,-1],"split_conditions":[-9.575236E-2,-1.180271E0,3.7786102E-1,3.1398743E-1,-3.1719035E-1,6.0269606E-1,3.166955E-1,5.260403E-1,3.1412834E-1,6.9588834E-1,3.142669E-1,2.3362699E0,3.5829145E-1,3.434012E-2,3.1343442E-1],"split_indices":[8,8,1,0,0,20,0,2,0,6,0,7,0,0,0],"split_type":[0,0,0,0,0,0,0,0,0,0,0,0,0,0,0],"sum_hessian":[8.87357E3,1.1347439E3,7.7388267E3,8.525702E1,1.0494869E3,7.3545605E3,3.842661E2,7.2687803E3,8.5780464E1,7.21654E3,5.2239956E1,7.1968955E3,1.9644394E1,7.1713467E3,2.5549244E1],"tree_param":{"num_deleted":"0","num_feature":"30","num_nodes":"15","size_leaf_vector":"0"}},{"base_weights":[3.256072E-2,-8.842633E-1,1.3706438E-1,1.0270298E0,-1.041138E0,1.00743234E-1,1.0389459E0,9.2202745E-2,1.0274106E0,8.687083E-2,1.0234922E0,8.4099844E-2,1.0119405E0,1.6030392E-1,4.9326766E-2],"categories":[],"categories_nodes":[],"categories_segments":[],"categories_sizes":[],"default_left":[1,1,1,0,0,1,0,1,0,1,0,1,0,0,0],"id":8,"left_children":[1,3,5,-1,-1,7,-1,9,-1,11,-1,13,-1,-1,-1],"loss_changes":[7.9857104E2,2.567779E2,2.4497672E2,0E0,0E0,5.6833504E1,0E0,3.5308537E1,0E0,1.8086739E1,0E0,1.872393E1,0E0,0E0,0E0],"parents":[2147483647,0,0,1,1,2,2,5,5,7,7,9,9,11,11],"right_children":[2,4,6,-1,-1,8,-1,10,-1,12,-1,14,-1,-1,-1],"split_conditions":[-9.575236E-2,-1.180271E0,3.7786102E-1,3.0810893E-1,-3.1234142E-1,6.0269606E-1,3.1168377E-1,5.260403E-1,3.082232E-1,2.3362699E0,3.0704767E-1,1.1415449E-1,3.0358216E-1,4.8091177E-2,1.479803E-2],"split_indices":[8,8,1,0,0,20,0,2,0,7,0,8,0,0,0],"split_type":[0,0,0,0,0,0,0,0,0,0,0,0,0,0,0],"sum_hessian":[8.332552E3,8.518348E2,7.480717E3,6.419269E1,7.876421E2,7.19218E3,2.8853638E2,7.1275894E3,6.4590866E1,7.088101E3,3.9488285E1,7.0680205E3,2.0080835E1,2.2135308E3,4.8544897E3],"tree_param":{"num_deleted":"0","num_feature":"30","num_nodes":"15","size_leaf_vector":"0"}},{"base_weights":[2.2678733E-2,-8.7364525E-1,1.0118658E-1,1.0106598E0,-1.029322E0,7.2787225E-2,1.0264006E0,6.616177E-2,1.0109922E0,6.1846383E-2,1.0362674E0,4.2313803E-3,1.0485258E-1,-2.5975502E-1,1.0925946E0,5.032705E-2,-2.8610477E-1,1.9509354E-1,6.2466398E-2],"categories":[],"categories_nodes":[],"categories_segments":[],"categories_sizes":[],"default_left":[1,1,1,0,0,1,0,1,0,1,1,1,1,0,0,0,0,0,0],"id":9,"left_children":[1,3,5,-1,-1,7,-1,9,-1,11,13,15,17,-1,-1,-1,-1,-1,-1],"loss_changes":[5.577809E2,1.8830069E2,1.9141965E2,0E0,0E0,4.3892857E1,0E0,2.9338789E1,0E0,1.7327875E1,2.5498505E0,4.0031353E1,1.5304314E1,0E0,0E0,0E0,0E0,0E0,0E0],"parents":[2147483647,0,0,1,1,2,2,5,5,7,7,9,9,10,10,11,11,12,12],"right_children":[2,4,6,-1,-1,8,-1,10,-1,12,14,16,18,-1,-1,-1,-1,-1,-1],"split_conditions":[-9.575236E-2,-1.180271E0,3.7786102E-1,3.0319795E-1,-3.087966E-1,6.0269606E-1,3.079202E-1,6.466241E-1,3.0329767E-1,-2.4525777E-1,1.1863801E-1,-2.495754E-1,-2.2634053E-1,-7.792651E-2,3.277784E-1,1.5098116E-2,-8.583143E-2,5.8528066E-2,1.873992E-2],"split_indices":[8,8,1,0,0,20,0,0,0,19,11,19,12,0,0,0,0,0,0],"split_type":[0,0,0,0,0,0,0,0,0,0,0,0,0,0,0,0,0,0,0],"sum_hessian":[7.924318E3,6.373674E2,7.2869507E3,4.8220207E1,5.8914716E2,7.070986E3,2.1596457E2,7.022465E3,4.852106E1,6.992424E3,3.0041105E1,2.9890796E3,4.0033442E3,1.1008279E0,2.8940279E1,2.580249E3,4.0883057E2,1.2782734E3,2.7250708E3],"tree_param":{"num_deleted":"0","num_feature":"30","num_nodes":"19","size_leaf_vector":"0"}},{"base_weights":[1.5547978E-2,-8.6538726E-1,7.4318826E-2,9.958295E-1,-1.0204939E0,5.24161E-2,1.0165943E0,4.6928868E-2,1.0043477E0,4.3606352E-2,9.818977E-1,4.1378383E-2,1.0864584E0,5.9456296E-2,-8.339946E-2],"categories":[],"categories_nodes":[],"categories_segments":[],"categories_sizes":[],"default_left":[1,1,1,0,0,1,0,1,0,1,0,1,0,0,0],"id":10,"left_children":[1,3,5,-1,-1,7,-1,9,-1,11,-1,13,-1,-1,-1],"loss_changes":[3.9472464E2,1.3866959E2,1.4744992E2,0E0,0E0,3.6442604E1,0E0,2.1536863E1,0E0,1.6040653E1,0E0,1.5590798E1,0E0,0E0,0E0],"parents":[2147483647,0,0,1,1,2,2,5,5,7,7,9,9,11,11],"right_children":[2,4,6,-1,-1,8,-1,10,-1,12,-1,14,-1,-1,-1],"split_conditions":[-9.575236E-2,-1.180271E0,3.7786102E-1,2.9874888E-1,-3.0614817E-1,5.260403E-1,3.049783E-1,6.0269606E-1,3.013043E-1,6.9588834E-1,2.945693E-1,5.965105E-1,3.2593754E-1,1.783689E-2,-2.501984E-2],"split_indices":[8,8,1,0,0,2,0,20,0,6,0,25,0,0,0],"split_type":[0,0,0,0,0,0,0,0,0,0,0,0,0,0,0],"sum_hessian":[7.621852E3,4.7582547E2,7.146027E3,3.6186134E1,4.3963934E2,6.984726E3,1.6130087E2,6.945738E3,3.898812E1,6.9221855E3,2.355211E1,6.908466E3,1.3719688E1,6.03468E3,8.737857E2],"tree_param":{"num_deleted":"0","num_feature":"30","num_nodes":"15","size_leaf_vector":"0"}},{"base_weights":[1.0505439E-2,-8.5862046E-1,5.4406073E-2,9.811929E-1,-1.0137033E0,3.76757E-2,1.0084958E0,3.354428E-2,1.0619588E0,3.0657645E-2,9.901366E-1,2.8415663E-2,9.56142E-1,-1.6071075E-1,3.9008636E-2],"categories":[],"categories_nodes":[],"categories_segments":[],"categories_sizes":[],"default_left":[1,1,1,0,0,1,0,1,0,1,0,1,0,0,0],"id":11,"left_children":[1,3,5,-1,-1,7,-1,9,-1,11,-1,13,-1,-1,-1],"loss_changes":[2.8225903E2,1.0248386E2,1.1236415E2,0E0,0E0,2.9254074E1,0E0,1.9008062E1,0E0,1.4237773E1,0E0,1.3748379E1,0E0,0E0,0E0],"parents":[2147483647,0,0,1,1,2,2,5,5,7,7,9,9,11,11],"right_children":[2,4,6,-1,-1,8,-1,10,-1,12,-1,14,-1,-1,-1],"split_conditions":[-9.575236E-2,-1.180271E0,3.7786102E-1,2.9435787E-1,-3.04111E-1,6.8972194E-1,3.0254877E-1,2.3362699E0,3.1858766E-1,6.0269606E-1,2.97041E-1,-5.13849E-1,2.868426E-1,-4.821323E-2,1.1702592E-2],"split_indices":[8,8,1,0,0,9,0,7,0,20,0,17,0,0,0],"split_type":[0,0,0,0,0,0,0,0,0,0,0,0,0,0,0],"sum_hessian":[7.3954355E3,3.5469897E2,7.0407363E3,2.716011E1,3.2753888E2,6.9204233E3,1.203131E2,6.893651E3,2.6772627E1,6.87394E3,1.9710901E1,6.8583564E3,1.5583634E1,3.630106E2,6.4953457E3],"tree_param":{"num_deleted":"0","num_feature":"30","num_nodes":"15","size_leaf_vector":"0"}},{"base_weights":[7.036232E-3,-8.526791E-1,3.977029E-2,9.6559614E-1,-1.008257E0,2.7081123E-2,1.0013063E0,2.3534736E-2,9.7998744E-1,2.1648714E-2,1.0378841E0,1.9888295E-2,9.53433E-1,2.8873552E-2,-1.4885332E-1],"categories":[],"categories_nodes":[],"categories_segments":[],"categories_sizes":[],"default_left":[1,1,1,0,0,1,0,1,0,1,0,1,0,0,0],"id":12,"left_children":[1,3,5,-1,-1,7,-1,9,-1,11,-1,13,-1,-1,-1],"loss_changes":[2.0345206E2,7.598581E1,8.494267E1,0E0,0E0,2.3208223E1,0E0,1.3082105E1,0E0,1.1198074E1,0E0,1.0354403E1,0E0,0E0,0E0],"parents":[2147483647,0,0,1,1,2,2,5,5,7,7,9,9,11,11],"right_children":[2,4,6,-1,-1,8,-1,10,-1,12,-1,14,-1,-1,-1],"split_conditions":[-9.575236E-2,-1.180271E0,3.7786102E-1,2.8967884E-1,-3.0247712E-1,5.260403E-1,3.003919E-1,6.8972194E-1,2.9399624E-1,2.3362699E0,3.1136525E-1,1.1201456E0,2.860299E-1,8.6620655E-3,-4.4655997E-2],"split_indices":[8,8,1,0,0,2,0,9,0,7,0,7,0,0,0],"split_type":[0,0,0,0,0,0,0,0,0,0,0,0,0,0,0],"sum_hessian":[7.2272837E3,2.6417E2,6.963114E3,2.0411358E1,2.4375867E2,6.8734346E3,8.967895E1,6.8489697E3,2.4464792E1,6.8372783E3,1.1691491E1,6.8254043E3,1.1873884E1,6.4811226E3,3.442819E2],"tree_param":{"num_deleted":"0","num_feature":"30","num_nodes":"15","size_leaf_vector":"0"}},{"base_weights":[4.677909E-3,-8.470121E-1,2.905249E-2,9.480041E-1,-1.0036225E0,1.9474447E-2,9.943582E-1,1.6552394E-2,9.541979E-1,1.4545587E-2,9.433255E-1,-2.3620905E-1,1.0321827E0,1.447756E-1,3.939002E-3,1.9317971E-1,-1.02079235E-1,-5.7465617E-2,4.3512873E-2],"categories":[],"categories_nodes":[],"categories_segments":[],"categories_sizes":[],"default_left":[1,1,1,0,0,1,0,1,1,1,0,0,0,1,1,0,0,0,0],"id":13,"left_children":[1,3,5,-1,-1,7,-1,9,11,13,-1,-1,-1,15,17,-1,-1,-1,-1],"loss_changes":[1.474862E2,5.651927E1,6.383758E1,0E0,0E0,1.8665821E1,0E0,1.2669564E1,2.220955E0,9.400226E0,0E0,0E0,0E0,6.1437607E0,1.5297662E1,0E0,0E0,0E0,0E0],"parents":[2147483647,0,0,1,1,2,2,5,5,7,7,8,8,9,9,13,13,14,14],"right_children":[2,4,6,-1,-1,8,-1,10,12,14,-1,-1,-1,16,18,-1,-1,-1,-1],"split_conditions":[-9.575236E-2,-1.180271E0,3.7786102E-1,2.8440124E-1,-3.0108678E-1,6.466241E-1,2.9830748E-1,6.0269606E-1,1.1863801E-1,-2.5783408E-2,2.8299767E-1,-7.086272E-2,3.0965483E-1,-3.0825011E-2,1.8412343E-1,5.7953916E-2,-3.0623771E-2,-1.7239686E-2,1.3053862E-2],"split_indices":[8,8,1,0,0,0,0,20,11,8,0,0,0,27,8,0,0,0,0],"split_type":[0,0,0,0,0,0,0,0,0,0,0,0,0,0,0,0,0,0,0],"sum_hessian":[7.1023013E3,1.9666699E2,6.9056343E3,1.537626E1,1.8129073E2,6.838798E3,6.6836365E1,6.8185E3,2.0297703E1,6.804781E3,1.3719182E1,1.1232235E0,1.9174479E1,5.115241E2,6.293257E3,4.2784778E2,8.367635E1,2.4661753E3,3.8270815E3],"tree_param":{"num_deleted":"0","num_feature":"30","num_nodes":"19","size_leaf_vector":"0"}},{"base_weights":[3.132027E-3,-8.411242E-1,2.1255873E-2,9.274844E-1,-9.9936336E-1,1.4051284E-2,9.870462E-1,1.1737719E-2,1.0097134E0,1.0121843E-2,9.3250424E-1,2.5153749E-2,-8.4315725E-2,2.295873E-2,7.3929673E-1,-7.535553E-2,-1.1226606E0],"categories":[],"categories_nodes":[],"categories_segments":[],"categories_sizes":[],"default_left":[1,1,1,0,0,1,0,1,0,1,0,1,1,0,0,0,0],"id":14,"left_children":[1,3,5,-1,-1,7,-1,9,-1,11,-1,13,15,-1,-1,-1,-1],"loss_changes":[1.07330536E2,4.2183792E1,4.776719E1,0E0,0E0,1.5691561E1,0E0,1.0111358E1,0E0,9.643055E0,0E0,9.16831E0,8.59396E0,0E0,0E0,0E0,0E0],"parents":[2147483647,0,0,1,1,2,2,5,5,7,7,9,9,11,11,12,12],"right_children":[2,4,6,-1,-1,8,-1,10,-1,12,-1,14,16,-1,-1,-1,-1],"split_conditions":[-9.575236E-2,-1.180271E0,3.7786102E-1,2.7824533E-1,-2.99809E-1,6.954055E-1,2.9611388E-1,5.260403E-1,3.0291402E-1,-9.9409014E-2,2.7975127E-1,4.962366E-1,2.5159648E-1,6.887619E-3,2.2178903E-1,-2.260666E-2,-3.367982E-1],"split_indices":[8,8,1,0,0,6,0,2,0,13,0,20,23,0,0,0,0],"split_type":[0,0,0,0,0,0,0,0,0,0,0,0,0,0,0,0,0],"sum_hessian":[7.0123633E3,1.4641805E2,6.8659453E3,1.16251135E1,1.3479292E2,6.8161133E3,4.9832203E1,6.8013213E3,1.479206E1,6.7904155E3,1.0905676E1,5.858616E3,9.3179944E2,5.841693E3,1.6923113E1,9.248908E2,6.908597E0],"tree_param":{"num_deleted":"0","num_feature":"30","num_nodes":"17","size_leaf_vector":"0"}},{"base_weights":[2.106477E-3,-8.345396E-1,1.55775165E-2,9.0323865E-1,-9.950933E-1,1.0164141E-2,9.7877866E-1,8.352414E-3,9.893062E-1,6.7744255E-3,9.3482006E-1,5.988661E-2,-1.687376E-2,-2.5261512E-2,1.7994614E-1,-2.093272E-1,2.8545814E-2],"categories":[],"categories_nodes":[],"categories_segments":[],"categories_sizes":[],"default_left":[1,1,1,0,0,1,0,1,0,1,0,1,1,0,0,0,0],"id":15,"left_children":[1,3,5,-1,-1,7,-1,9,-1,11,-1,13,15,-1,-1,-1,-1],"loss_changes":[7.827828E1,3.1605682E1,3.562998E1,0E0,0E0,1.2051001E1,0E0,9.915185E0,0E0,8.511634E0,0E0,2.1347164E1,4.0994995E1,0E0,0E0,0E0,0E0],"parents":[2147483647,0,0,1,1,2,2,5,5,7,7,9,9,11,11,12,12],"right_children":[2,4,6,-1,-1,8,-1,10,-1,12,-1,14,16,-1,-1,-1,-1],"split_conditions":[-9.575236E-2,-1.180271E0,3.7786102E-1,2.709716E-1,-2.98528E-1,6.8972194E-1,2.936336E-1,2.3362699E0,2.9679188E-1,1.1415449E-1,2.8044602E-1,4.4185538E-2,1.8412343E-1,-7.578454E-3,5.3983845E-2,-6.2798165E-2,8.563745E-3],"split_indices":[8,8,1,0,0,9,0,7,0,8,0,8,8,0,0,0,0],"split_type":[0,0,0,0,0,0,0,0,0,0,0,0,0,0,0,0,0],"sum_hessian":[6.9432646E3,1.0905782E2,6.834207E3,8.832466E0,1.0022536E2,6.797017E3,3.7189987E1,6.78547E3,1.1546767E1,6.7749385E3,1.0531975E1,2.0867378E3,4.6882007E3,1.2213363E3,8.654014E2,8.944779E2,3.7937227E3],"tree_param":{"num_deleted":"0","num_feature":"30","num_nodes":"17","size_leaf_vector":"0"}},{"base_weights":[1.6240667E-3,-8.2676655E-1,1.1636391E-2,8.746826E-1,-9.9044013E-1,7.5694164E-3,9.689441E-1,5.956216E-3,9.965152E-1,5.060118E-2,-1.9556712E-2,5.501689E-2,-7.9716796E-1,-2.748854E-1,-4.0820765E-4,-8.165338E-3,1.043488E-1,-1.5231804E0,4.93568E-1,-2.2924472E-1,-1.3456942E0,-5.4839877E-3,4.2204815E-1],"categories":[],"categories_nodes":[],"categories_segments":[],"categories_sizes":[],"default_left":[1,1,1,0,0,1,0,1,0,1,1,1,1,1,1,0,0,0,0,0,0,0,0],"id":16,"left_children":[1,3,5,-1,-1,7,-1,9,-1,11,13,15,17,19,21,-1,-1,-1,-1,-1,-1,-1,-1],"loss_changes":[5.716211E1,2.3786499E1,2.650411E1,0E0,0E0,1.0813248E1,0E0,7.7139874E0,0E0,9.263227E0,2.107129E1,7.6401916E0,1.2770644E1,1.438582E1,8.601265E0,0E0,0E0,0E0,0E0,0E0,0E0,0E0,0E0],"parents":[2147483647,0,0,1,1,2,2,5,5,7,7,9,9,10,10,11,11,12,12,13,13,14,14],"right_children":[2,4,6,-1,-1,8,-1,10,-1,12,14,16,18,20,22,-1,-1,-1,-1,-1,-1,-1,-1],"split_conditions":[-9.575236E-2,-1.180271E0,3.7786102E-1,2.624048E-1,-2.9713205E-1,7.190882E-1,2.9068324E-1,-1.6702567E-1,2.9895458E-1,9.355347E-2,-2.8629315E-1,-1.7611283E-1,-2.3181465E-1,-2.8724283E-1,2.335719E0,-2.4496014E-3,3.1304643E-2,-4.5695412E-1,1.4807041E-1,-6.877342E-2,-4.0370828E-1,-1.6451963E-3,1.2661445E-1],"split_indices":[8,8,1,0,0,0,0,11,0,15,24,23,28,24,25,0,0,0,0,0,0,0,0],"split_type":[0,0,0,0,0,0,0,0,0,0,0,0,0,0,0,0,0,0,0,0,0,0,0],"sum_hessian":[6.8897266E3,8.1303894E1,6.808423E3,6.7535987E0,7.455029E1,6.780624E3,2.7798536E1,6.770586E3,1.0038376E1,2.4617668E3,4.308819E3,2.4499412E3,1.1825711E1,2.9966684E2,4.009152E3,1.0745444E3,1.3753967E3,7.4532976E0,4.372413E0,2.8858084E2,1.108598E1,3.9625295E3,4.6622463E1],"tree_param":{"num_deleted":"0","num_feature":"30","num_nodes":"23","size_leaf_vector":"0"}},{"base_weights":[1.1763694E-3,-8.172907E-1,8.611907E-3,8.415406E-1,-9.850176E-1,5.5536027E-3,9.5689434E-1,4.098163E-3,9.6426183E-1,2.8773185E-3,8.98122E-1,1.8879138E-3,8.8296556E-1,7.134431E-3,-1.7238005E-1],"categories":[],"categories_nodes":[],"categories_segments":[],"categories_sizes":[],"default_left":[1,1,1,0,0,1,0,1,0,1,0,1,0,0,0],"id":17,"left_children":[1,3,5,-1,-1,7,-1,9,-1,11,-1,13,-1,-1,-1],"loss_changes":[4.170586E1,1.7995045E1,1.969006E1,0E0,0E0,9.443022E0,0E0,7.376919E0,0E0,5.878501E0,0E0,6.1693773E0,0E0,0E0,0E0],"parents":[2147483647,0,0,1,1,2,2,5,5,7,7,9,9,11,11],"right_children":[2,4,6,-1,-1,8,-1,10,-1,12,-1,14,-1,-1,-1],"split_conditions":[-9.575236E-2,-1.180271E0,3.7786102E-1,2.5246218E-1,-2.955053E-1,6.954055E-1,2.870683E-1,6.0269606E-1,2.8927857E-1,2.3362699E0,2.6943663E-1,1.5255203E0,2.648897E-1,2.1403295E-3,-5.1714014E-2],"split_indices":[8,8,1,0,0,6,0,20,0,7,0,7,0,0,0],"split_type":[0,0,0,0,0,0,0,0,0,0,0,0,0,0,0],"sum_hessian":[6.850886E3,6.0697437E1,6.790189E3,5.2047496E0,5.5492687E1,6.769363E3,2.0826008E1,6.7601045E3,9.258416E0,6.7518877E3,8.216899E0,6.7453066E3,6.5810013E0,6.549098E3,1.9620833E2],"tree_param":{"num_deleted":"0","num_feature":"30","num_nodes":"15","size_leaf_vector":"0"}},{"base_weights":[9.231195E-4,-8.055318E-1,6.4449073E-3,8.039704E-1,-9.784004E-1,4.1400674E-3,9.419489E-1,2.793647E-3,9.107849E-1,1.9124252E-3,9.308578E-1,1.007238E-1,-5.9692273E-3,7.7252764E-1,8.746563E-2,-1.1002407E-1,7.671615E-3],"categories":[],"categories_nodes":[],"categories_segments":[],"categories_sizes":[],"default_left":[1,1,1,0,0,1,0,1,0,1,0,1,1,0,0,0,0],"id":18,"left_children":[1,3,5,-1,-1,7,-1,9,-1,11,-1,13,15,-1,-1,-1,-1],"loss_changes":[3.0385754E1,1.369743E1,1.4608531E1,0E0,0E0,8.251176E0,0E0,5.52046E0,0E0,5.2550664E0,0E0,4.3722014E0,8.871266E0,0E0,0E0,0E0,0E0],"parents":[2147483647,0,0,1,1,2,2,5,5,7,7,9,9,11,11,12,12],"right_children":[2,4,6,-1,-1,8,-1,10,-1,12,-1,14,16,-1,-1,-1,-1],"split_conditions":[-9.575236E-2,-1.180271E0,3.7786102E-1,2.4119113E-1,-2.9352012E-1,5.260403E-1,2.8258467E-1,7.190882E-1,2.7323547E-1,-2.5783408E-2,2.7925736E-1,-2.1206608E-1,4.4185538E-2,2.317583E-1,2.623969E-2,-3.3007223E-2,2.3014846E-3],"split_indices":[8,8,1,0,0,2,0,0,0,8,0,18,8,0,0,0,0],"split_type":[0,0,0,0,0,0,0,0,0,0,0,0,0,0,0,0,0],"sum_hessian":[6.8213813E3,4.5403038E1,6.775978E3,4.04947E0,4.135357E1,6.760327E3,1.5651272E1,6.751304E3,9.022998E0,6.745901E3,5.4033546E0,4.9746457E2,6.248436E3,8.519234E0,4.889453E2,7.233702E2,5.525066E3],"tree_param":{"num_deleted":"0","num_feature":"30","num_nodes":"17","size_leaf_vector":"0"}},{"base_weights":[7.9208834E-4,-7.9091257E-1,4.892075E-3,7.6255226E-1,-9.701072E-1,3.1256408E-3,9.596793E-1,8.3000556E-4,4.4636533E-1,1.506361E-3,-1.5598652E0,-7.342578E-2,7.6496047E-1,6.4366567E-4,8.541534E-1,-6.291886E-1,5.409972E-1,1.0769311E0,3.2057795E-1,3.0365917E-3,-2.9660317E-1,2.9790372E-1,-1.3584386E0,-2.725794E-1,8.539374E-1,1.1608342E0,2.557021E-1,-1.0248924E-1,8.728532E-1],"categories":[],"categories_nodes":[],"categories_segments":[],"categories_sizes":[],"default_left":[1,1,1,0,0,1,0,1,1,1,0,1,1,1,0,1,1,1,1,0,0,0,0,0,0,0,0,0,0],"id":19,"left_children":[1,3,5,-1,-1,7,-1,9,11,13,-1,15,17,19,-1,21,23,25,27,-1,-1,-1,-1,-1,-1,-1,-1,-1,-1],"loss_changes":[2.2084194E1,1.0497255E1,1.1412224E1,0E0,0E0,6.8748035E0,0E0,7.0990496E0,5.821278E0,4.9433136E0,0E0,5.169389E0,2.659132E0,4.7774224E0,0E0,5.7373466E0,2.0796542E0,5.512867E-1,2.5106516E0,0E0,0E0,0E0,0E0,0E0,0E0,0E0,0E0,0E0,0E0],"parents":[2147483647,0,0,1,1,2,2,5,5,7,7,8,8,9,9,11,11,12,12,13,13,15,15,16,16,17,17,18,18],"right_children":[2,4,6,-1,-1,8,-1,10,12,14,-1,16,18,20,-1,22,24,26,28,-1,-1,-1,-1,-1,-1,-1,-1,-1,-1],"split_conditions":[-9.575236E-2,-1.180271E0,6.8972194E-1,2.2876568E-1,-2.9103217E-1,7.5753975E-1,2.8790382E-1,9.4050205E-1,8.8935584E-2,3.7786102E-1,-4.6795958E-1,8.6981463E-1,9.2231727E-1,5.8455604E-1,2.5624603E-1,2.4404542E-1,-4.227516E-2,7.028854E-1,6.7514986E-1,9.1097754E-4,-8.898096E-2,8.9371115E-2,-4.075316E-1,-8.1773825E-2,2.5618124E-1,3.4825027E-1,7.6710634E-2,-3.0746773E-2,2.61856E-1],"split_indices":[8,8,9,0,0,29,0,22,26,1,0,29,29,17,0,0,11,24,24,0,0,0,0,0,0,0,0,0,0],"split_type":[0,0,0,0,0,0,0,0,0,0,0,0,0,0,0,0,0,0,0,0,0,0,0,0,0,0,0,0,0],"sum_hessian":[6.8013643E3,3.4051937E1,6.7673125E3,3.185026E0,3.0866909E1,6.755817E3,1.1495536E1,6.722004E3,3.3812855E1,6.720091E3,1.9132377E0,1.3141652E1,2.0671202E1,6.714298E3,5.7926702E0,6.8875966E0,6.2540555E0,1.1308702E1,9.3625E0,6.661659E3,5.263857E1,3.2928739E0,3.594723E0,1.7731701E0,4.4808855E0,9.885219E0,1.4234835E0,5.7625537E0,3.5999465E0],"tree_param":{"num_deleted":"0","num_feature":"30","num_nodes":"29","size_leaf_vector":"0"}},{"base_weights":[6.771675E-4,-7.728241E-1,3.72308E-3,7.182943E-1,-9.595905E-1,1.9073986E-3,7.352975E-1,2.8164452E-3,-1.0952533E0,-5.7906055E-1,1.0495796E0,5.243276E-4,4.4566703E-1,-1.4703609E0,1.5595034E-1,4.3869036E-1,-1.5758184E0,-1.2991999E-3,4.0204442E-1,6.477345E-1,-9.6049E-2,-4.8962072E-1,-1.766458E0,3.1359326E-2,-2.3695933E-2,-4.5223233E-1,5.3645283E-1,7.5107205E-1,-5.0207865E-1,-6.9369644E-1,6.375534E-1],"categories":[],"categories_nodes":[],"categories_segments":[],"categories_sizes":[],"default_left":[1,1,1,0,0,1,1,1,1,1,0,1,1,1,0,0,0,1,1,1,1,0,0,0,0,0,0,0,0,0,0],"id":20,"left_children":[1,3,5,-1,-1,7,9,11,13,15,-1,17,19,21,-1,-1,-1,23,25,27,29,-1,-1,-1,-1,-1,-1,-1,-1,-1,-1],"loss_changes":[1.5993378E1,8.104457E0,8.979888E0,0E0,0E0,6.7310696E0,7.5214834E0,6.8424644E0,2.8515167E0,4.6215115E0,0E0,4.9115868E0,3.8616953E0,4.1118908E-1,0E0,0E0,0E0,4.885402E0,3.7248878E0,3.3962126E0,4.9584804E0,0E0,0E0,0E0,0E0,0E0,0E0,0E0,0E0,0E0,0E0],"parents":[2147483647,0,0,1,1,2,2,5,5,6,6,7,7,8,8,9,9,11,11,12,12,13,13,17,17,18,18,19,19,20,20],"right_children":[2,4,6,-1,-1,8,10,12,14,16,-1,18,20,22,-1,-1,-1,24,26,28,30,-1,-1,-1,-1,-1,-1,-1,-1,-1,-1],"split_conditions":[-9.575236E-2,-1.180271E0,6.931089E-1,2.154883E-1,-2.8787717E-1,3.081017E-1,1.7580232E-1,1.7234707E-1,6.449475E-1,3.6234293E-2,3.148739E-1,5.0357866E-1,5.765531E-1,5.2129406E-1,4.67851E-2,1.3160712E-1,-4.7274554E-1,-1.6607547E-1,-2.65135E-1,4.3505412E-1,7.136036E-1,-1.4688621E-1,-5.2993745E-1,9.407798E-3,-7.10878E-3,-1.3566971E-1,1.6093585E-1,2.2532162E-1,-1.506236E-1,-2.0810895E-1,1.9126603E-1],"split_indices":[8,8,19,0,0,18,6,11,6,29,0,20,17,6,0,0,0,23,6,14,17,0,0,0,0,0,0,0,0,0,0],"split_type":[0,0,0,0,0,0,0,0,0,0,0,0,0,0,0,0,0,0,0,0,0,0,0,0,0,0,0,0,0,0,0],"sum_hessian":[6.786089E3,2.562633E1,6.760463E3,2.5356977E0,2.3090631E1,6.7447256E3,1.5737006E1,6.7401387E3,4.587072E0,2.8742275E0,1.2862779E1,6.7064287E3,3.371012E1,3.3943098E0,1.1927621E0,1.6991618E0,1.1750658E0,6.677101E3,2.932769E1,2.440938E1,9.300742E0,1.4024993E0,1.9918106E0,2.7161125E3,3.9609883E3,3.6655397E0,2.566215E1,2.271472E1,1.6946601E0,5.15527E0,4.1454716E0],"tree_param":{"num_deleted":"0","num_feature":"30","num_nodes":"31","size_leaf_vector":"0"}},{"base_weights":[4.7661274E-4,-7.506826E-1,2.741621E-3,6.724913E-1,-9.462423E-1,1.5333066E-3,9.238012E-1,-9.509203E-3,6.690289E-2,-3.6540001E-3,-3.7839842E-1,-1.3569179E0,7.6284625E-2,-2.857002E-3,-1.590141E0,-1.8628025E-1,-7.5005937E-1,-1.9142513E0,3.500601E-1,2.218978E-1,1.0646436E-3,-5.0038877E-3,4.465313E-1,-5.914917E-3,-6.741071E-1,-1.0786773E0,-1.1698985E-1,-2.5361046E-1,-2.2903461E0,9.7309895E-2,4.8667344E-1,-4.7244787E-1,4.487521E-2],"categories":[],"categories_nodes":[],"categories_segments":[],"categories_sizes":[],"default_left":[1,1,1,0,0,1,0,1,1,1,1,1,1,1,0,1,1,1,0,1,1,0,0,0,0,0,0,0,0,0,0,0,0],"id":21,"left_children":[1,3,5,-1,-1,7,-1,9,11,13,15,17,19,21,-1,23,25,27,-1,29,31,-1,-1,-1,-1,-1,-1,-1,-1,-1,-1,-1,-1],"loss_changes":[1.1528225E1,6.305626E0,7.516671E0,0E0,0E0,4.871188E0,0E0,1.24682045E1,1.3130203E1,7.18243E0,6.300331E0,6.793894E0,1.0621651E1,5.484263E0,0E0,5.3446255E0,6.1991158E0,2.5463963E0,0E0,1.08490715E1,1.3307266E1,0E0,0E0,0E0,0E0,0E0,0E0,0E0,0E0,0E0,0E0,0E0,0E0],"parents":[2147483647,0,0,1,1,2,2,5,5,7,7,8,8,9,9,10,10,11,11,12,12,13,13,15,15,16,16,17,17,19,19,20,20],"right_children":[2,4,6,-1,-1,8,-1,10,12,14,16,18,20,22,-1,24,26,28,-1,30,32,-1,-1,-1,-1,-1,-1,-1,-1,-1,-1,-1,-1],"split_conditions":[-9.575236E-2,-1.180271E0,6.944781E-1,2.017474E-1,-2.838727E-1,-8.1751324E-2,2.7714038E-1,-4.2903252E-2,-3.5066977E-1,5.1731604E-1,-4.733266E-2,-1.1867905E-2,-5.9179604E-2,9.983229E-2,-4.7704235E-1,9.51618E-3,-1.28380675E-2,-5.128486E-1,1.05018035E-1,5.856858E-2,-3.2678002E-1,-1.5011664E-3,1.339594E-1,-1.7744752E-3,-2.0223214E-1,-3.236032E-1,-3.509696E-2,-7.608314E-2,-6.8710387E-1,2.919297E-2,1.4600204E-1,-1.4173436E-1,1.3462563E-2],"split_indices":[8,8,6,0,0,23,0,6,29,22,21,12,11,13,0,6,21,17,0,24,17,0,0,0,0,0,0,0,0,0,0,0,0],"split_type":[0,0,0,0,0,0,0,0,0,0,0,0,0,0,0,0,0,0,0,0,0,0,0,0,0,0,0,0,0,0,0,0,0],"sum_hessian":[6.7735913E3,1.9369997E1,6.754221E3,2.045463E0,1.7324533E1,6.7463726E3,7.8487306E0,5.772168E3,9.7420465E2,5.6829746E3,8.919324E1,5.4369087E0,9.6876776E2,5.6811226E3,1.8522058E0,5.978864E1,2.9404602E1,4.0071387E0,1.4297699E0,3.2931656E2,6.394512E2,5.655095E3,2.6027508E1,4.4388794E1,1.5399845E1,1.8893406E1,1.0511197E1,1.0491148E0,2.958024E0,2.2487234E2,1.0444423E2,5.3324665E1,5.861265E2],"tree_param":{"num_deleted":"0","num_feature":"30","num_nodes":"33","size_leaf_vector":"0"}},{"base_weights":[4.0109345E-4,-7.2405493E-1,2.0882394E-3,6.264545E-1,-9.294202E-1,1.0053338E-3,8.857283E-1,1.5022409E-4,8.5307074E-1,-1.7512597E-1,4.0653376E-3,7.5457394E-2,-3.8252375E-1,3.3472958E-3,8.356612E-1,-5.8037174E-1,2.1144304E-1,-8.9835566E-1,-1.9262743E-1,7.051166E-2,-5.5591315E-3],"categories":[],"categories_nodes":[],"categories_segments":[],"categories_sizes":[],"default_left":[1,1,1,0,0,1,0,1,0,1,1,1,1,1,0,0,0,0,0,0,0],"id":22,"left_children":[1,3,5,-1,-1,7,-1,9,-1,11,13,15,17,19,-1,-1,-1,-1,-1,-1,-1],"loss_changes":[8.270153E0,4.9424143E0,6.4584665E0,0E0,0E0,4.9129176E0,0E0,4.6240115E0,0E0,7.6801677E0,3.9328585E0,6.14313E0,7.7336645E0,3.9403267E0,0E0,0E0,0E0,0E0,0E0,0E0,0E0],"parents":[2147483647,0,0,1,1,2,2,5,5,7,7,9,9,10,10,11,11,12,12,13,13],"right_children":[2,4,6,-1,-1,8,-1,10,-1,12,14,16,18,20,-1,-1,-1,-1,-1,-1,-1],"split_conditions":[-9.575236E-2,-1.180271E0,5.260403E-1,1.8793635E-1,-2.7882606E-1,3.7786102E-1,2.657185E-1,-4.3224806E-1,2.5592124E-1,-1.6959344E-1,2.3362699E0,-1.8417864E-1,5.045121E-1,-3.6917216E-1,2.5069836E-1,-1.7411153E-1,6.343292E-2,-2.6950672E-1,-5.778823E-2,2.1153498E-2,-1.6677395E-3],"split_indices":[8,8,2,0,0,1,0,28,0,11,7,23,25,22,0,0,0,0,0,0,0],"split_type":[0,0,0,0,0,0,0,0,0,0,0,0,0,0,0,0,0,0,0,0,0],"sum_hessian":[6.7640254E3,1.4720968E1,6.7493047E3,1.6724267E0,1.3048541E1,6.7420435E3,7.261271E0,6.736283E3,5.760175E0,1.4622418E2,6.590059E3,6.6506035E1,7.971815E1,6.585377E3,4.6821203E0,1.0860469E1,5.5645565E1,2.044657E1,5.9271576E1,7.702112E2,5.8151655E3],"tree_param":{"num_deleted":"0","num_feature":"30","num_nodes":"21","size_leaf_vector":"0"}},{"base_weights":[4.1733848E-4,-6.9263643E-1,1.6774262E-3,5.814609E-1,-9.085046E-1,7.778404E-4,8.615166E-1,-2.943288E-2,2.3904674E-2,-4.8720194E-3,-1.7200682E-1,5.4447893E-2,-1.1794826E-2,-3.2625165E-2,1.5356389E-1,-1.2802535E-1,-5.278236E-1,4.4736005E-2,4.7546077E-1,-1.7782378E-1,2.4102284E-2,2.9167742E-2,-7.612127E-2,1.7162798E-1,-1.0676833E0,-9.4288684E-2,-6.4675575E-1,-1.4183282E0,-4.0936756E-1,4.828399E-2,-1.0634934E0,5.5064815E-1,-8.829301E-1,5.478349E-1,-2.1455303E-1,6.82008E-1,1.778608E-2],"categories":[],"categories_nodes":[],"categories_segments":[],"categories_sizes":[],"default_left":[1,1,1,0,0,1,0,1,1,1,1,1,1,1,1,1,1,1,1,1,1,0,0,0,0,0,0,0,0,0,0,0,0,0,0,0,0],"id":23,"left_children":[1,3,5,-1,-1,7,-1,9,11,13,15,17,19,21,23,25,27,29,31,33,35,-1,-1,-1,-1,-1,-1,-1,-1,-1,-1,-1,-1,-1,-1,-1,-1],"loss_changes":[5.9009147E0,3.9010396E0,5.216095E0,0E0,0E0,4.708624E0,0E0,1.0231746E1,4.1628094E0,1.0970294E1,6.65205E0,8.390808E0,1.0498875E1,5.707952E0,8.387452E0,6.649843E0,4.368375E0,7.9626827E0,5.2133875E0,8.463937E0,6.007883E0,0E0,0E0,0E0,0E0,0E0,0E0,0E0,0E0,0E0,0E0,0E0,0E0,0E0,0E0,0E0,0E0],"parents":[2147483647,0,0,1,1,2,2,5,5,7,7,8,8,9,9,10,10,11,11,12,12,13,13,14,14,15,15,16,16,17,17,18,18,19,19,20,20],"right_children":[2,4,6,-1,-1,8,-1,10,12,14,16,18,20,22,24,26,28,30,32,34,36,-1,-1,-1,-1,-1,-1,-1,-1,-1,-1,-1,-1,-1,-1,-1,-1],"split_conditions":[-9.575236E-2,-1.180271E0,6.0269606E-1,1.7443827E-1,-2.725514E-1,-2.4525777E-1,2.5845498E-1,-2.495754E-1,-1.2218255E-1,-2.5389305E-1,-1.6011398E-1,-8.493346E-2,-8.411791E-2,-1.7418526E-1,-9.597883E-2,-2.2338352E-1,-1.5842754E-1,-8.778892E-2,8.332709E-2,-2.6072788E-1,-1.711711E-1,8.750323E-3,-2.2836382E-2,5.1488396E-2,-3.2030502E-1,-2.8286606E-2,-1.9402674E-1,-4.2549846E-1,-1.22810274E-1,1.4485198E-2,-3.1904802E-1,1.6519445E-1,-2.6487905E-1,1.6435046E-1,-6.436591E-2,2.0460242E-1,5.335824E-3],"split_indices":[8,8,20,0,0,19,0,19,22,19,23,23,29,23,7,9,23,23,13,12,26,0,0,0,0,0,0,0,0,0,0,0,0,0,0,0,0],"split_type":[0,0,0,0,0,0,0,0,0,0,0,0,0,0,0,0,0,0,0,0,0,0,0,0,0,0,0,0,0,0,0,0,0,0,0,0,0],"sum_hessian":[6.754635E3,1.1262999E1,6.7433716E3,1.3864284E0,9.87657E0,6.7373237E3,6.0478563E0,2.9211436E3,3.8161802E3,2.4927568E3,4.2838687E2,2.0563313E3,1.7598489E3,2.1218647E3,3.70892E2,3.824706E2,4.591626E1,2.0110468E3,4.5284397E1,3.1215167E2,1.4476973E3,8.767029E2,1.2451619E3,3.6633286E2,4.559152E0,3.602245E2,2.224615E1,4.102427E0,4.1813835E1,2.0055824E3,5.4644217E0,4.3472797E1,1.8116013E0,1.4368E1,2.977837E2,1.2749141E1,1.4349481E3],"tree_param":{"num_deleted":"0","num_feature":"30","num_nodes":"37","size_leaf_vector":"0"}},{"base_weights":[4.6406878E-4,-3.628906E-4,8.738816E-1,-6.778659E-1,5.9997156E-4,5.1048887E-1,-8.8298273E-1,2.337568E-3,-2.9917717E-1,-1.3633701E-3,3.1692323E-1,-6.4462805E-1,1.506255E-1,1.2154791E-3,-5.147345E-1,-2.3300967E-1,4.5821297E-1,-1.3180876E0,-1.510558E-1,-4.0964898E-1,5.70643E-1,-2.8602013E-3,1.8803279E-1,-1.4942834E-1,-1.1449586E0,6.116118E-1,-6.2977123E-1,7.688275E-1,2.1202646E-1,-1.9349766E0,-4.399396E-2,8.9888716E-1,-7.311744E-1,2.6730958E-1,-1.4945965E0,9.486887E-1,-2.7665696E-1],"categories":[],"categories_nodes":[],"categories_segments":[],"categories_sizes":[],"default_left":[1,1,0,1,1,0,0,1,1,1,1,1,1,1,1,1,1,1,1,1,1,0,0,0,0,0,0,0,0,0,0,0,0,0,0,0,0],"id":24,"left_children":[1,3,-1,5,7,-1,-1,9,11,13,15,17,19,21,23,25,27,29,31,33,35,-1,-1,-1,-1,-1,-1,-1,-1,-1,-1,-1,-1,-1,-1,-1,-1],"loss_changes":[4.8708186E0,4.395787E0,0E0,2.781766E0,3.5059268E0,0E0,0E0,7.7910857E0,6.12414E0,8.75785E0,6.152666E0,7.1563234E0,4.3895316E0,5.012594E0,7.4411144E0,5.9372935E0,4.596656E0,7.168808E0,9.122977E0,6.3843884E0,3.6293495E0,0E0,0E0,0E0,0E0,0E0,0E0,0E0,0E0,0E0,0E0,0E0,0E0,0E0,0E0,0E0,0E0],"parents":[2147483647,0,0,1,1,3,3,4,4,7,7,8,8,9,9,10,10,11,11,12,12,13,13,14,14,15,15,16,16,17,17,18,18,19,19,20,20],"right_children":[2,4,-1,6,8,-1,-1,10,12,14,16,18,20,22,24,26,28,30,32,34,36,-1,-1,-1,-1,-1,-1,-1,-1,-1,-1,-1,-1,-1,-1,-1,-1],"split_conditions":[6.945685E-1,-9.575236E-2,2.6216447E-1,-2.9294949E0,1.8369521E-1,1.5314667E-1,-2.6489484E-1,9.3978405E-2,-1.4034651E-2,7.1059704E-2,1.5547813E-1,2.2473186E-1,5.329782E-1,1.8545341E-1,3.5606486E-1,1.0549835E-2,3.710101E-1,4.8612362E-1,2.490212E-1,1.8824905E-1,5.500052E-1,-8.5806043E-4,5.640984E-2,-4.4828504E-2,-3.434876E-1,1.8348354E-1,-1.8893138E-1,2.3064826E-1,6.360794E-2,-5.80493E-1,-1.31981885E-2,2.6966617E-1,-2.1935233E-1,8.019288E-2,-4.4837895E-1,2.846066E-1,-8.299709E-2],"split_indices":[6,8,0,8,23,0,0,23,20,23,0,23,6,24,22,0,22,12,23,26,0,0,0,0,0,0,0,0,0,0,0,0,0,0,0,0,0],"split_type":[0,0,0,0,0,0,0,0,0,0,0,0,0,0,0,0,0,0,0,0,0,0,0,0,0,0,0,0,0,0,0,0,0,0,0,0,0],"sum_hessian":[6.7422246E3,6.7368457E3,5.37892E0,8.563069E0,6.7282827E3,1.0413256E0,7.521744E0,6.6904946E3,3.7787872E1,6.6136836E3,7.681091E1,2.112818E1,1.665969E1,6.5816196E3,3.2064228E1,1.5567883E1,6.124303E1,8.229226E0,1.2898954E1,7.1486154E0,9.511076E0,6.4420615E3,1.3955788E2,2.108153E1,1.09826975E1,4.802617E0,1.0765265E1,2.6139618E1,3.5103413E1,5.195141E0,3.0340853E0,4.395021E0,8.503933E0,4.8660426E0,2.2825727E0,6.49396E0,3.0171158E0],"tree_param":{"num_deleted":"0","num_feature":"30","num_nodes":"37","size_leaf_vector":"0"}},{"base_weights":[5.0214445E-4,-2.991617E-4,8.4431684E-1,-9.790425E-4,8.2804656E-1,-2.6178975E-2,1.8880665E-2,1.8591033E-2,-1.24893844E-1,2.3684539E-2,-3.0007225E-1,2.6111113E-2,-5.997946E-1,8.476356E-1,-1.3062419E-1,1.720918E-2,3.137562E-1,-7.5134504E-1,3.8156636E-2,-2.4628226E-2,1.02335595E-1,-1.4195052E0,-2.7629E-1,1.0350283E0,4.1394484E-1,-1.4034584E-1,3.9210176E-1,2.4260694E-2,-2.85655E-1,4.6222827E-1,-1.1746179E-1,-1.0162945E0,2.3606399E-1,3.7104085E-1,-5.5586684E-1],"categories":[],"categories_nodes":[],"categories_segments":[],"categories_sizes":[],"default_left":[1,1,0,1,0,1,1,1,1,1,1,1,1,1,1,1,1,1,1,0,0,0,0,0,0,0,0,0,0,0,0,0,0,0,0],"id":25,"left_children":[1,3,-1,5,-1,7,9,11,13,15,17,19,21,23,25,27,29,31,33,-1,-1,-1,-1,-1,-1,-1,-1,-1,-1,-1,-1,-1,-1,-1,-1],"loss_changes":[4.556375E0,3.7926192E0,0E0,3.3677993E0,0E0,1.311002E1,5.7735395E0,9.508589E0,5.26873E0,6.9604554E0,8.56321E0,7.80647E0,6.122754E0,2.3020744E-2,4.7352953E0,7.7564335E0,5.235202E0,6.5193872E0,6.7143764E0,0E0,0E0,0E0,0E0,0E0,0E0,0E0,0E0,0E0,0E0,0E0,0E0,0E0,0E0,0E0,0E0],"parents":[2147483647,0,0,1,1,3,3,5,5,6,6,7,7,8,8,9,9,10,10,11,11,12,12,13,13,14,14,15,15,16,16,17,17,18,18],"right_children":[2,4,-1,6,-1,8,10,12,14,16,18,20,22,24,26,28,30,32,34,-1,-1,-1,-1,-1,-1,-1,-1,-1,-1,-1,-1,-1,-1,-1,-1],"split_conditions":[3.7786102E-1,2.3362699E0,2.5329506E-1,1.8412343E-1,2.4841398E-1,1.1415449E-1,3.2119483E-1,1.0455506E0,-2.066402E-1,4.8555907E-2,1.0858094E-1,4.4185538E-2,-4.2917103E-2,-3.2418525E-1,9.6863925E-2,-2.8794404E-2,-3.9146626E-3,1.4198354E-1,1.98833E-1,-7.388468E-3,3.070068E-2,-4.2585158E-1,-8.2887E-2,3.1050852E-1,1.2418345E-1,-4.2103752E-2,1.17630534E-1,7.2782086E-3,-8.56965E-2,1.3866849E-1,-3.5238538E-2,-3.0488837E-1,7.08192E-2,1.1131226E-1,-1.6676006E-1],"split_indices":[1,7,0,8,0,8,12,25,26,27,11,8,11,6,23,11,13,20,23,0,0,0,0,0,0,0,0,0,0,0,0,0,0,0,0],"split_type":[0,0,0,0,0,0,0,0,0,0,0,0,0,0,0,0,0,0,0,0,0,0,0,0,0,0,0,0,0,0,0,0,0,0,0],"sum_hessian":[6.7372915E3,6.7318984E3,5.3931227E0,6.7273755E3,4.522805E0,2.9649014E3,3.762474E3,2.0403541E3,9.245472E2,3.7075588E3,5.491525E1,2.0167861E3,2.356801E1,4.5550966E0,9.1999207E2,3.6276375E3,7.992155E1,2.3002874E1,3.1912376E1,1.2112118E3,8.0557434E2,5.7105246E0,1.7857485E1,2.2125301E0,2.3425663E0,9.039126E2,1.6079462E1,3.5459966E3,8.164069E1,5.9398293E1,2.0523256E1,1.8113312E1,4.889562E0,2.0692118E1,1.1220259E1],"tree_param":{"num_deleted":"0","num_feature":"30","num_nodes":"35","size_leaf_vector":"0"}},{"base_weights":[7.2139554E-4,-7.233174E-6,8.62033E-1,-5.6566123E-4,8.408816E-1,-6.3582844E-1,1.5457133E-4,3.856422E-1,-8.488767E-1,-3.9370943E-4,7.916645E-1,6.940131E-2,-5.8585205E-3,9.648898E-2,-3.315243E-1,-7.663859E-2,3.6209545E-3],"categories":[],"categories_nodes":[],"categories_segments":[],"categories_sizes":[],"default_left":[1,1,0,1,0,1,1,0,0,1,0,1,1,0,0,0,0],"id":26,"left_children":[1,3,-1,5,-1,7,9,-1,-1,11,-1,13,15,-1,-1,-1,-1],"loss_changes":[4.224299E0,3.159046E0,0E0,3.076104E0,0E0,1.9842999E0,2.9150052E0,0E0,0E0,2.5607429E0,0E0,5.326359E0,4.1777945E0,0E0,0E0,0E0,0E0],"parents":[2147483647,0,0,1,1,3,3,5,5,6,6,9,9,11,11,12,12],"right_children":[2,4,-1,6,-1,8,10,-1,-1,12,-1,14,16,-1,-1,-1,-1],"split_conditions":[6.8972194E-1,7.190882E-1,2.5860992E-1,-9.575236E-2,2.522645E-1,-4.086084E-1,5.260403E-1,1.1569267E-1,-2.5466302E-1,-2.5783408E-2,2.3749936E-1,2.098952E-1,4.4185538E-2,2.8946696E-2,-9.94573E-2,-2.2991577E-2,1.0862864E-3],"split_indices":[9,0,0,8,0,19,2,0,0,8,0,6,8,0,0,0,0],"split_type":[0,0,0,0,0,0,0,0,0,0,0,0,0,0,0,0,0],"sum_hessian":[6.730121E3,6.7254316E3,4.6894045E0,6.721967E3,3.4646811E0,6.6138105E0,6.715353E3,1.0015781E0,5.6122327E0,6.7117036E3,3.6497102E0,4.8650464E2,6.2251987E3,4.5642648E2,3.007814E1,7.3442303E2,5.490776E3],"tree_param":{"num_deleted":"0","num_feature":"30","num_nodes":"17","size_leaf_vector":"0"}},{"base_weights":[6.5011164E-4,-4.8506784E-4,4.5337033E-1,-1.0033133E-3,7.818101E-1,7.5069386E-1,1.1421112E-1,6.966234E-4,-2.3939784E-1,-1.6396129E-1,9.311748E-1,-4.0240413E-1,6.826973E-1,-2.844408E-4,5.5625796E-1,-7.191474E-1,6.447904E-2,1.0345219E0,2.4621218E-1,6.244345E-1,-8.227482E-1,1.459063E-1,7.9740053E-1,9.6244056E-4,-9.61855E-1,7.7793306E-1,-2.8162885E-1,-1.188878E0,-3.7383053E-1,1.7554212E-1,-1.2428566E0,1.100945E-1,-1.1548399E0,-9.943758E-3,4.8423957E-2,6.372901E-3,-1.4824691E0,9.202384E-1,-2.1898064E-1,-1.0472052E0,6.1753213E-1,2.4345808E-1,-1.8662131E0,1.5330218E-1,-9.9794644E-1,3.219877E-2,9.5500505E-1,-1.4694723E0,-2.622589E-1],"categories":[],"categories_nodes":[],"categories_segments":[],"categories_sizes":[],"default_left":[1,1,1,1,0,1,1,1,1,0,1,1,1,1,1,1,1,0,0,0,1,0,0,1,1,1,1,1,1,1,0,0,1,0,0,0,0,0,0,0,0,0,0,0,0,0,0,0,0],"id":27,"left_children":[1,3,5,7,-1,9,11,13,15,-1,17,19,21,23,25,27,29,-1,-1,-1,31,-1,-1,33,35,37,39,41,43,45,-1,-1,47,-1,-1,-1,-1,-1,-1,-1,-1,-1,-1,-1,-1,-1,-1,-1,-1],"loss_changes":[3.4575791E0,2.7218144E0,1.6111679E0,2.7186909E0,0E0,1.6032891E0,2.9297395E0,3.6310453E0,6.970952E0,0E0,2.7542448E-1,2.829577E0,1.714952E-1,7.9751534E0,2.400329E0,2.5566053E0,4.5736704E0,0E0,0E0,0E0,1.4401631E0,0E0,0E0,3.4392262E0,4.3516245E0,1.5566878E0,2.84338E0,7.6141863E0,4.140853E0,3.156329E0,0E0,0E0,5.168638E-1,0E0,0E0,0E0,0E0,0E0,0E0,0E0,0E0,0E0,0E0,0E0,0E0,0E0,0E0,0E0,0E0],"parents":[2147483647,0,0,1,1,2,2,3,3,5,5,6,6,7,7,8,8,10,10,11,11,12,12,13,13,14,14,15,15,16,16,20,20,23,23,24,24,25,25,26,26,27,27,28,28,29,29,32,32],"right_children":[2,4,6,8,-1,10,12,14,16,-1,18,20,22,24,26,28,30,-1,-1,-1,32,-1,-1,34,36,38,40,42,44,46,-1,-1,48,-1,-1,-1,-1,-1,-1,-1,-1,-1,-1,-1,-1,-1,-1,-1,-1],"split_conditions":[8.6496824E-1,2.3362699E0,4.9138272E-1,5.942689E-1,2.3454304E-1,-4.3987006E-2,6.230981E-1,6.167104E-1,2.2716299E-1,-4.918839E-2,4.03271E-1,9.2231727E-1,1.8154821E-1,5.070983E-1,2.9188734E-1,1.7051288E-1,4.301583E-1,3.103566E-1,7.3863655E-2,1.8733035E-1,3.9584744E-1,4.3771893E-2,2.3922017E-1,-1.0356124E-1,7.810223E-2,2.4356359E-1,3.5246488E-1,7.810223E-2,3.032436E-1,7.306099E-1,-3.72857E-1,3.3028353E-2,1.0644783E0,-2.9831275E-3,1.4527188E-2,1.9118704E-3,-4.4474074E-1,2.7607152E-1,-6.56942E-2,-3.1416157E-1,1.8525964E-1,7.303742E-2,-5.598639E-1,4.5990653E-2,-2.9938394E-1,9.659632E-3,2.8650153E-1,-4.408417E-1,-7.867767E-2],"split_indices":[29,7,24,10,0,11,6,24,27,0,15,29,11,6,16,6,20,0,0,0,27,0,0,23,21,14,16,21,6,17,0,0,29,0,0,0,0,0,0,0,0,0,0,0,0,0,0,0,0],"split_type":[0,0,0,0,0,0,0,0,0,0,0,0,0,0,0,0,0,0,0,0,0,0,0,0,0,0,0,0,0,0,0,0,0,0,0,0,0,0,0,0,0,0,0,0,0,0,0,0,0],"sum_hessian":[6.726444E3,6.710616E3,1.5827698E1,6.707172E3,3.4445693E0,7.7874455E0,8.040253E0,6.6606733E3,4.6498657E1,1.2984735E0,6.4889717E0,4.3653564E0,3.674896E0,6.6499297E3,1.0743604E1,1.7501448E1,2.899721E1,5.194841E0,1.2941309E0,1.1269215E0,3.2384348E0,1.0470268E0,2.6278691E0,6.6423154E3,7.6141796E0,8.552476E0,2.191128E0,6.3799753E0,1.1121471E1,2.7524616E1,1.4725943E0,1.025709E0,2.2127259E0,5.40182E3,1.2404956E3,3.0079017E0,4.606278E0,7.5514503E0,1.0010256E0,1.0945467E0,1.0965815E0,2.2540278E0,4.1259475E0,6.438141E0,4.6833305E0,2.412866E1,3.3959553E0,1.1581596E0,1.0545663E0],"tree_param":{"num_deleted":"0","num_feature":"30","num_nodes":"49","size_leaf_vector":"0"}},{"base_weights":[5.658101E-4,-3.511639E-5,8.03855E-1,-5.400691E-4,7.727424E-1,4.910743E-3,-6.7513615E-2,3.6517954E-3,4.6111488E-1,-1.1082304E0,-5.8084905E-2,4.831004E-3,-4.115205E-1,7.783201E-1,-5.830896E-2,-1.5560267E0,-4.5464285E-2,-1.0277162E-2,-2.6211536E-1,3.5712179E-3,7.577691E-1,-9.0173316E-1,4.2974645E-1,1.0073245E0,-5.1856957E-2,-6.9544286E-1,7.902549E-1,-6.532358E-2,2.0437665E-1,-6.954806E-1,-1.04607135E-1],"categories":[],"categories_nodes":[],"categories_segments":[],"categories_sizes":[],"default_left":[1,1,0,1,0,1,1,1,1,1,1,1,1,1,1,0,0,1,1,0,0,0,0,0,0,0,0,0,0,0,0],"id":28,"left_children":[1,3,-1,5,-1,7,9,11,13,15,17,19,21,23,25,-1,-1,27,29,-1,-1,-1,-1,-1,-1,-1,-1,-1,-1,-1,-1],"loss_changes":[3.2463381E0,2.6230755E0,0E0,2.452679E0,0E0,3.566671E0,4.897403E0,3.0358384E0,2.8612506E0,2.0635285E0,4.8955703E0,5.859606E0,7.630391E0,2.0827074E0,4.5558066E0,0E0,0E0,4.8328247E0,6.4314933E0,0E0,0E0,0E0,0E0,0E0,0E0,0E0,0E0,0E0,0E0,0E0,0E0],"parents":[2147483647,0,0,1,1,3,3,5,5,6,6,7,7,8,8,9,9,10,10,11,11,12,12,13,13,14,14,17,17,18,18],"right_children":[2,4,-1,6,-1,8,10,12,14,16,18,20,22,24,26,-1,-1,28,30,-1,-1,-1,-1,-1,-1,-1,-1,-1,-1,-1,-1],"split_conditions":[5.659859E-1,3.7786102E-1,2.411565E-1,-2.6314573E-2,2.3182273E-1,1.9460101E-1,-3.6287946E-1,1.7613137E-1,2.4873802E-1,-1.7304915E-1,6.364971E-2,1.545111E-1,2.266925E-1,6.493574E-1,6.224693E-1,-4.6680802E-1,-1.3639286E-2,3.0868065E-1,-1.8227571E-1,1.0713654E-3,2.2733074E-1,-2.7051997E-1,1.2892394E-1,3.0219734E-1,-1.5557088E-2,-2.0863287E-1,2.3707648E-1,-1.9597074E-2,6.1313E-2,-2.0864418E-1,-3.1382143E-2],"split_indices":[20,1,0,13,0,11,22,23,11,27,15,23,23,24,0,0,0,14,28,0,0,0,0,0,0,0,0,0,0,0,0],"split_type":[0,0,0,0,0,0,0,0,0,0,0,0,0,0,0,0,0,0,0,0,0,0,0,0,0,0,0,0,0,0,0],"sum_hessian":[6.7240684E3,6.720041E3,4.027189E0,6.7166514E3,3.3895316E0,6.211999E3,5.0465262E2,6.1959087E3,1.6090311E1,3.4846807E0,5.0116794E2,6.1793457E3,1.6562754E1,9.68027E0,6.410041E0,2.1251287E0,1.3595519E0,4.068796E2,9.428832E1,6.1700273E3,9.318702E0,1.041941E1,6.1433444E0,7.4200606E0,2.2602096E0,3.764191E0,2.64585E0,3.2438828E2,8.249134E1,2.422382E1,7.00645E1],"tree_param":{"num_deleted":"0","num_feature":"30","num_nodes":"31","size_leaf_vector":"0"}},{"base_weights":[5.97416E-4,6.29593E-5,7.859091E-1,-3.700989E-4,7.702326E-1,6.07559E-1,-9.0993167E-4,-5.368595E-2,9.824749E-1,-8.011141E-1,-2.4943013E-4,2.1059138E-1,-3.0391812E-1,-1.1845907E0,1.2466442E-4,7.898947E-1,-3.960562E-4],"categories":[],"categories_nodes":[],"categories_segments":[],"categories_sizes":[],"default_left":[1,1,0,1,0,1,1,1,0,0,1,0,0,0,1,0,0],"id":29,"left_children":[1,3,-1,5,-1,7,9,11,-1,-1,13,-1,-1,-1,15,-1,-1],"loss_changes":[2.8209574E0,2.2408185E0,0E0,2.204248E0,0E0,1.5300338E0,3.5462444E0,2.692935E-1,0E0,0E0,2.9710145E0,0E0,0E0,0E0,2.7574475E0,0E0,0E0],"parents":[2147483647,0,0,1,1,3,3,5,5,6,6,7,7,10,10,14,14],"right_children":[2,4,-1,6,-1,8,10,12,-1,-1,14,-1,-1,-1,16,-1,-1],"split_conditions":[5.260403E-1,6.8972194E-1,2.3577274E-1,-3.8758674E-1,2.3106979E-1,-1.9269297E-1,-9.575236E-2,9.4482794E-2,2.947425E-1,-2.4033423E-1,-1.9214436E-1,6.3177414E-2,-9.117544E-2,-3.5537723E-1,-1.9154474E-1,2.3696841E-1,-1.1881686E-4],"split_indices":[2,9,0,24,0,23,8,1,0,0,23,0,0,0,23,0,0],"split_type":[0,0,0,0,0,0,0,0,0,0,0,0,0,0,0,0,0],"sum_hessian":[6.720243E3,6.716672E3,3.571061E0,6.713896E3,2.7756326E0,4.958942E0,6.7089375E3,2.1043217E0,2.85462E0,4.5336123E0,6.704404E3,1.1004846E0,1.0038371E0,1.1174533E0,6.703286E3,3.4179387E0,6.699868E3],"tree_param":{"num_deleted":"0","num_feature":"30","num_nodes":"17","size_leaf_vector":"0"}},{"base_weights":[5.0243665E-4,5.4539996E-5,7.697216E-1,-1.6640518E-3,1.902751E-1,1.1654457E-3,-2.658692E-1,1.1478914E0,1.23151615E-1,-3.496254E-4,3.1057617E-1,4.2188704E-1,-4.4854376E-1,-6.0700023E-1,2.3899381E-1,-1.7188725E-3,3.3233616E-1,3.9930886E-1,-5.5593604E-1,8.164954E-1,-7.851371E-2,-5.1460105E-1,5.9625643E-1,8.479093E-1,-9.76287E-1,3.949379E-1,-2.1551873E-1,-1.2184172E-3,-1.5717281E0,6.781671E-1,-2.6047823E-1,-3.4422377E-1,5.4321957E-1,-1.3807366E0,6.4847547E-1,3.028423E-1,1.2264136E0,-1.0171626E0,2.4391085E-1,-2.706306E-1,-9.744847E-1,8.774063E-1,-9.483569E-2,7.8374326E-2,-1.6922464E0,2.855108E-1,1.0807128E0,-1.0898602E0,2.1608739E-1],"categories":[],"categories_nodes":[],"categories_segments":[],"categories_sizes":[],"default_left":[1,1,0,1,1,1,1,0,1,1,1,1,1,1,1,1,1,1,1,1,1,1,1,0,1,1,1,0,0,0,0,0,0,0,0,0,0,0,0,0,0,0,0,0,0,0,0,0,0],"id":30,"left_children":[1,3,-1,5,7,9,11,-1,13,15,17,19,21,23,25,27,29,31,33,35,37,39,41,-1,43,45,47,-1,-1,-1,-1,-1,-1,-1,-1,-1,-1,-1,-1,-1,-1,-1,-1,-1,-1,-1,-1,-1,-1],"loss_changes":[2.314772E0,2.1958003E0,0E0,4.9766397E0,3.7244213E0,3.0880299E0,9.051399E0,0E0,4.9934936E0,2.9870455E0,2.6900058E0,3.0890386E0,4.186924E0,5.196743E0,3.6425326E0,5.1289735E0,5.6869087E0,3.3648677E0,4.2726126E0,1.4504485E0,2.5682886E0,5.7291355E0,8.227856E-1,0E0,5.3807406E0,2.522192E0,5.318057E0,0E0,0E0,0E0,0E0,0E0,0E0,0E0,0E0,0E0,0E0,0E0,0E0,0E0,0E0,0E0,0E0,0E0,0E0,0E0,0E0,0E0,0E0],"parents":[2147483647,0,0,1,1,3,3,4,4,5,5,6,6,8,8,9,9,10,10,11,11,12,12,13,13,14,14,15,15,16,16,17,17,18,18,19,19,20,20,21,21,22,22,24,24,25,25,26,26],"right_children":[2,4,-1,6,8,10,12,-1,14,16,18,20,22,24,26,28,30,32,34,36,38,40,42,-1,44,46,48,-1,-1,-1,-1,-1,-1,-1,-1,-1,-1,-1,-1,-1,-1,-1,-1,-1,-1,-1,-1,-1,-1],"split_conditions":[6.945685E-1,2.184579E0,2.309165E-1,1.9830585E0,-2.9060626E-1,4.4484237E-1,-2.5361136E-1,3.4436744E-1,-1.3566564E-1,1.3284269E-1,4.9725422E-1,-2.8988954E-1,1.09543025E-1,-3.3047643E-1,1.2329114E-1,1.2694797E-1,-1.39404815E-2,-2.5277537E-1,2.0161776E-1,-3.0894387E-1,-2.867683E-1,-8.3680674E-2,3.5570222E-1,2.543728E-1,-3.203085E-1,1.0408386E-1,-6.7515E-2,-3.6552516E-4,-4.7151846E-1,2.0345014E-1,-7.814347E-2,-1.0326713E-1,1.6296588E-1,-4.14221E-1,1.9454265E-1,9.085269E-2,3.679241E-1,-3.0514878E-1,7.3173255E-2,-8.1189185E-2,-2.923454E-1,2.632219E-1,-2.8450709E-2,2.3512298E-2,-5.07674E-1,8.5653245E-2,3.2421386E-1,-3.2695806E-1,6.482622E-2],"split_indices":[6,25,0,25,12,20,12,0,23,13,15,6,18,29,12,13,6,24,19,24,6,26,6,0,6,29,19,0,0,0,0,0,0,0,0,0,0,0,0,0,0,0,0,0,0,0,0,0,0],"split_type":[0,0,0,0,0,0,0,0,0,0,0,0,0,0,0,0,0,0,0,0,0,0,0,0,0,0,0,0,0,0,0,0,0,0,0,0,0,0,0,0,0,0,0,0,0,0,0,0,0],"sum_hessian":[6.717745E3,6.7148354E3,2.9098058E0,6.655694E3,5.914116E1,6.5861553E3,6.953865E1,2.8192453E0,5.6321915E1,6.5550566E3,3.1098843E1,1.43190365E1,5.5219616E1,7.131606E0,4.9190308E1,6.529179E3,2.5877548E1,2.8699163E1,2.3996794E0,7.6526165E0,6.6664195E0,5.241326E1,2.8063524E0,1.1813344E0,5.9502716E0,3.6721996E1,1.2468311E1,6.528099E3,1.0801172E0,1.625239E1,9.625158E0,4.42823E0,2.4270933E1,1.337404E0,1.0622754E0,4.1682844E0,3.4843326E0,1.1535248E0,5.5128946E0,3.5283615E1,1.7129646E1,1.8031867E0,1.0031657E0,2.7661133E0,3.1841583E0,3.2890144E1,3.8318515E0,3.6166425E0,8.851669E0],"tree_param":{"num_deleted":"0","num_feature":"30","num_nodes":"49","size_leaf_vector":"0"}},{"base_weights":[5.631127E-4,1.4209331E-4,7.7134264E-1,-2.6726187E-4,7.3735124E-1,-3.0757744E-2,8.89231E-3,-1.8161312E-2,-4.9327034E-1,4.4235983E-1,4.9585886E-3,-6.038654E-3,-2.656218E-1,-8.7651885E-1,-1.4010832E-1,-6.2541634E-1,5.2557194E-1,-1.1408563E0,5.5217263E-3,6.007106E-3,-3.417477E-1,-6.443657E-1,-3.1251352E-2,-1.0713186E0,2.6414806E-1,-5.253239E-1,4.9255148E-1,1.5501715E-1,-9.7029614E-1,7.700039E-1,5.7611898E-2,4.449498E-2,-1.1913299E-2],"categories":[],"categories_nodes":[],"categories_segments":[],"categories_sizes":[],"default_left":[1,1,0,1,0,1,1,1,1,1,1,1,1,1,1,1,1,0,1,0,0,0,0,0,0,0,0,0,0,0,0,0,0],"id":31,"left_children":[1,3,-1,5,-1,7,9,11,13,15,17,19,21,23,25,27,29,-1,31,-1,-1,-1,-1,-1,-1,-1,-1,-1,-1,-1,-1,-1,-1],"loss_changes":[2.179454E0,2.026273E0,0E0,1.8745248E0,0E0,9.024494E0,8.798852E0,4.5296164E0,5.4360723E0,4.4521284E0,3.3074522E0,5.8290744E0,6.23934E0,4.617285E0,5.757985E0,1.1763645E0,4.942354E0,0E0,3.475867E0,0E0,0E0,0E0,0E0,0E0,0E0,0E0,0E0,0E0,0E0,0E0,0E0,0E0,0E0],"parents":[2147483647,0,0,1,1,3,3,5,5,6,6,7,7,8,8,9,9,10,10,11,11,12,12,13,13,14,14,15,15,16,16,18,18],"right_children":[2,4,-1,6,-1,8,10,12,14,16,18,20,22,24,26,28,30,-1,32,-1,-1,-1,-1,-1,-1,-1,-1,-1,-1,-1,-1,-1,-1],"split_conditions":[7.190882E-1,2.3362699E0,2.314028E-1,-2.8706208E-1,2.2120538E-1,-2.8546822E-1,-2.97359E-1,-1.6238722E-1,-3.2235134E-1,-1.8772335E-1,-2.972888E-1,-2.8875512E-1,-1.5888017E-1,1.9800505E-3,-2.9666394E-1,-1.8042032E-1,-3.490543E-1,-3.422569E-1,-2.4538487E-1,1.8021319E-3,-1.0252432E-1,-1.9330972E-1,-9.375406E-3,-3.213956E-1,7.924442E-2,-1.5759718E-1,1.4776544E-1,4.6505146E-2,-2.9108885E-1,2.3100118E-1,1.728357E-2,1.3348495E-2,-3.5739897E-3],"split_indices":[0,7,0,6,0,24,24,23,28,26,24,6,23,13,5,23,29,0,6,0,0,0,0,0,0,0,0,0,0,0,0,0,0],"split_type":[0,0,0,0,0,0,0,0,0,0,0,0,0,0,0,0,0,0,0,0,0,0,0,0,0,0,0,0,0,0,0,0,0],"sum_hessian":[6.71541E3,6.7127437E3,2.6664875E0,6.7100176E3,2.72628E0,1.5495386E3,5.160479E3,1.5094678E3,4.007077E1,4.540787E1,5.1150713E3,1.4399514E3,6.95163E1,1.8506142E1,2.1564629E1,2.8117402E0,4.259613E1,1.5179948E0,5.113553E3,1.3910216E3,4.89299E1,2.5904743E1,4.3611557E1,1.58586445E1,2.6474977E0,1.3508931E1,8.055697E0,1.0304465E0,1.7812937E0,2.7556797E1,1.5039332E1,1.5800494E3,3.5335037E3],"tree_param":{"num_deleted":"0","num_feature":"30","num_nodes":"33","size_leaf_vector":"0"}},{"base_weights":[5.421786E-4,-1.8877989E-2,1.587994E-2,1.2562116E-2,-8.667227E-2,5.3811194E-3,1.0346842E-1,1.7727757E-2,-3.9647466E-1,7.284833E-1,-9.109698E-2,7.550012E-3,-1.0717598E0,2.2091818E-1,-3.1427573E-2,1.0966279E-2,3.9182666E-1,-8.10029E-1,-4.3855853E-2,9.0568763E-1,3.4026182E-1,-8.416385E-2,-5.797896E-1,9.991042E-3,-6.913861E-1,-1.7818371E0,-5.6371078E-2,-4.4954658E-1,2.64769E-1,-3.2639325E-1,7.503574E-2,2.5684807E-2,-1.3782156E-1,8.880015E-1,2.2541864E-2,-9.795269E-1,1.6502124E-1,7.421636E-1,-5.79213E-1,-2.977961E-1,7.6506805E-1,-9.023637E-2,4.66292E-1,-1.0744537E0,5.3824127E-1,8.109583E-3,8.757854E-1,-1.0034636E0,3.4329382E-1,-2.2960966E0,-2.4561182E-1,7.973043E-1,-8.5478276E-1,3.6541396E-1,-1.1898117E0,2.8213543E-1,-7.802932E-1,1.0761547E0,-4.1612795E-1,1.5078893E-1,-3.395833E-1,1.0661137E-2,2.172297E-1,-8.877932E-1,-7.475966E-2,2.6058257E-1,1.0459701E0,4.3880048E-1,-3.6296704E-1,-2.0953609E-1,-1.1995192E0,2.8327709E-2,9.2836595E-1,-1.513296E0,1.4429893E-1,-7.590885E-2,-5.9439087E-1,8.6044073E-1,-6.331533E-3,-1.6403561E-2,-1.2278588E0,-1.8314609E-1,1.0434924E0,9.6086515E-3,-7.7934414E-1,1.0726918E0,3.2516554E-1,-7.818957E-3,-1.2917788E0,8.050748E-1,-3.611234E-1,6.43556E-1,-6.0664034E-1,-2.6016882E-1,-1.5310304E0,1.1770651E0,2.5453508E-1,-1.6136574E0,6.3101673E-1,-6.55504E-1,1.7582539E-1,3.6854136E-1,-4.6637498E-2,-9.661978E-1,4.337509E-2],"categories":[],"categories_nodes":[],"categories_segments":[],"categories_sizes":[],"default_left":[1,1,1,1,1,1,1,1,1,1,1,1,1,1,1,1,1,1,1,0,1,1,1,1,1,1,1,1,1,1,1,1,1,1,1,1,0,1,1,0,0,1,1,1,1,1,1,1,1,0,0,0,0,1,1,1,1,0,1,1,1,0,0,0,0,0,0,0,0,0,0,0,0,0,0,0,0,0,0,0,0,0,0,0,0,0,0,0,0,0,0,0,0,0,0,0,0,0,0,0,0,0,0,0,0],"id":32,"left_children":[1,3,5,7,9,11,13,15,17,19,21,23,25,27,29,31,33,35,37,-1,39,41,43,45,47,49,51,53,55,57,59,61,63,65,67,69,-1,71,73,-1,-1,75,77,79,81,83,85,87,89,-1,-1,-1,-1,91,93,95,97,-1,99,101,103,-1,-1,-1,-1,-1,-1,-1,-1,-1,-1,-1,-1,-1,-1,-1,-1,-1,-1,-1,-1,-1,-1,-1,-1,-1,-1,-1,-1,-1,-1,-1,-1,-1,-1,-1,-1,-1,-1,-1,-1,-1,-1,-1,-1],"loss_changes":[1.9998077E0,6.315899E0,3.4489548E0,4.2854943E0,3.4523807E0,7.8361073E0,6.3674207E0,5.05613E0,3.653287E0,4.814267E-2,3.117787E0,5.713897E0,4.7593946E0,6.432191E0,5.9196587E0,4.309191E0,6.4824595E0,2.076242E0,6.6203017E0,0E0,1.1019737E0,3.1263328E0,7.714859E0,5.4244046E0,4.108207E0,2.543867E0,3.2759867E0,8.61091E0,3.8894777E0,6.7373996E0,4.4092336E0,5.1486764E0,8.311503E0,1.225667E0,3.5888088E0,1.4448347E0,0E0,8.2418275E-1,6.5119534E0,0E0,0E0,6.5531087E0,1.911149E0,1.4860458E0,1.8765854E0,3.936164E0,4.3408298E-1,2.633689E0,1.4116952E0,0E0,0E0,0E0,0E0,2.3413668E0,1.9289732E0,4.6307764E0,5.2174635E0,0E0,6.872903E0,5.0904527E0,5.259296E0,0E0,0E0,0E0,0E0,0E0,0E0,0E0,0E0,0E0,0E0,0E0,0E0,0E0,0E0,0E0,0E0,0E0,0E0,0E0,0E0,0E0,0E0,0E0,0E0,0E0,0E0,0E0,0E0,0E0,0E0,0E0,0E0,0E0,0E0,0E0,0E0,0E0,0E0,0E0,0E0,0E0,0E0,0E0,0E0],"parents":[2147483647,0,0,1,1,2,2,3,3,4,4,5,5,6,6,7,7,8,8,9,9,10,10,11,11,12,12,13,13,14,14,15,15,16,16,17,17,18,18,20,20,21,21,22,22,23,23,24,24,25,25,26,26,27,27,28,28,29,29,30,30,31,31,32,32,33,33,34,34,35,35,37,37,38,38,41,41,42,42,43,43,44,44,45,45,46,46,47,47,48,48,53,53,54,54,55,55,56,56,58,58,59,59,60,60],"right_children":[2,4,6,8,10,12,14,16,18,20,22,24,26,28,30,32,34,36,38,-1,40,42,44,46,48,50,52,54,56,58,60,62,64,66,68,70,-1,72,74,-1,-1,76,78,80,82,84,86,88,90,-1,-1,-1,-1,92,94,96,98,-1,100,102,104,-1,-1,-1,-1,-1,-1,-1,-1,-1,-1,-1,-1,-1,-1,-1,-1,-1,-1,-1,-1,-1,-1,-1,-1,-1,-1,-1,-1,-1,-1,-1,-1,-1,-1,-1,-1,-1,-1,-1,-1,-1,-1,-1,-1],"split_conditions":[1.8412343E-1,1.1415449E-1,-7.368619E-2,1.0455506E0,-2.066402E-1,-7.46516E-2,-2.9864306E-2,7.2846234E-2,3.1064143E-2,-3.2418525E-1,-1.2167262E-2,2.8659022E-1,-7.419235E-2,-3.2643777E-1,-7.3963758E-3,1.517401E-1,3.710101E-1,1.3097048E-1,4.2538476E-1,2.717063E-1,-3.091895E-1,4.0349737E-1,3.459175E-2,-7.570753E-2,6.2475944E-1,-7.159046E-2,-8.062585E-2,8.1384397E-1,2.9480872E-1,-1.207677E-1,1.24590084E-1,-7.478076E-2,1.03569105E-1,2.5821874E-1,1.3122138E-1,-1.9591826E-1,4.9506374E-2,-5.2940793E-2,2.2473186E-1,-8.933883E-2,2.2952043E-1,1.1015478E-1,1.7944658E-1,-2.1292536E-1,1.1201456E0,4.0763623E-1,-7.508625E-2,-4.8677474E-2,6.0636616E-1,-6.88829E-1,-7.3683545E-2,2.391913E-1,-2.5643483E-1,3.2799628E-2,-6.640091E-2,-2.3938462E-1,9.320554E-2,3.228464E-1,1.8404941E-1,4.181909E-2,4.0983093E-1,3.1983412E-3,6.516891E-2,-2.6633796E-1,-2.24279E-2,7.817477E-2,3.1379104E-1,1.3164015E-1,-1.08890116E-1,-6.286083E-2,-3.5985577E-1,8.498313E-3,2.785098E-1,-4.5398882E-1,4.328968E-2,-2.2772655E-2,-1.7831726E-1,2.5813222E-1,-1.89946E-3,-4.9210684E-3,-3.6835766E-1,-5.494383E-2,3.1304774E-1,2.8825956E-3,-2.3380326E-1,3.2180756E-1,9.754967E-2,-2.3456872E-3,-3.8753366E-1,2.4152245E-1,-1.0833703E-1,1.930668E-1,-1.8199211E-1,-7.805065E-2,-4.5930913E-1,3.5311955E-1,7.636052E-2,-4.840972E-1,1.8930502E-1,-1.966512E-1,5.274762E-2,1.10562414E-1,-1.399125E-2,-2.8985935E-1,1.30125275E-2],"split_indices":[8,8,23,25,26,23,11,11,21,6,13,12,23,29,11,29,22,20,24,0,6,6,23,23,12,11,18,8,6,6,13,23,22,6,23,6,0,26,23,0,0,16,23,16,7,28,23,17,0,0,0,0,0,23,24,22,23,0,29,11,14,0,0,0,0,0,0,0,0,0,0,0,0,0,0,0,0,0,0,0,0,0,0,0,0,0,0,0,0,0,0,0,0,0,0,0,0,0,0,0,0,0,0,0,0],"split_type":[0,0,0,0,0,0,0,0,0,0,0,0,0,0,0,0,0,0,0,0,0,0,0,0,0,0,0,0,0,0,0,0,0,0,0,0,0,0,0,0,0,0,0,0,0,0,0,0,0,0,0,0,0,0,0,0,0,0,0,0,0,0,0,0,0,0,0,0,0,0,0,0,0,0,0,0,0,0,0,0,0,0,0,0,0,0,0,0,0,0,0,0,0,0,0,0,0,0,0,0,0,0,0,0,0],"sum_hessian":[6.711869E3,2.96167E3,3.7501992E3,2.0238904E3,9.3777954E2,3.3497427E3,4.0045654E2,1.9995946E3,2.4295803E1,4.179392E0,9.3360016E2,3.3440024E3,5.740372E0,2.1373042E2,1.8672614E2,1.9651064E3,3.4488094E1,1.0584745E1,1.3711059E1,1.954392E0,2.2249997E0,9.216962E2,1.190398E1,3.3333464E3,1.0655989E1,2.9338517E0,2.8065207E0,1.2552653E1,2.0117776E2,4.8973927E1,1.377522E2,1.7889642E3,1.761422E2,1.4116444E1,2.037165E1,9.013323E0,1.5714227E0,5.398542E0,8.312516E0,1.0087874E0,1.2162124E0,9.124661E2,9.230084E0,8.279677E0,3.6243026E0,3.3271257E3,6.220816E0,8.209907E0,2.4460816E0,1.8274634E0,1.1063882E0,1.3569905E0,1.4495302E0,6.2159095E0,6.3367434E0,1.986074E2,2.570354E0,2.283912E0,4.6690014E1,1.17010124E2,2.0742077E1,1.6598323E3,1.2913196E2,1.2647855E1,1.6349434E2,3.3722284E0,1.0744215E1,9.728706E0,1.0642944E1,2.4367995E0,6.5765233E0,1.3552214E0,4.04332E0,3.1518083E0,5.1607084E0,8.883702E2,2.4095957E1,4.5854464E0,4.644638E0,1.1886142E0,7.091063E0,1.7554381E0,1.8688645E0,3.3217898E3,5.3358617E0,3.8837874E0,2.3370287E0,2.074188E0,6.135719E0,1.391191E0,1.0548908E0,5.0957594E0,1.1201501E0,2.17459E0,4.1621532E0,4.69597E0,1.9391144E2,1.5259316E0,1.0444225E0,3.3169476E1,1.3520537E1,5.5228672E1,6.1781456E1,7.2903237E0,1.3451754E1],"tree_param":{"num_deleted":"0","num_feature":"30","num_nodes":"105","size_leaf_vector":"0"}},{"base_weights":[7.2675064E-4,-6.047549E-4,2.2761649E-1,7.0449983E-4,-2.6227087E-1,8.73396E-1,1.0893898E-1,-2.8690381E-3,1.1247916E-1,2.4331525E-1,-4.3784052E-1,1.0044547E0,1.4967765E-1,-6.593864E-2,4.9547508E-1,-1.4622692E-3,-6.617469E-1,-2.8814813E-1,1.7372389E-1,-9.947344E-1,5.522506E-1,-1.3390932E0,-1.1161366E-1,1.00963905E-1,-7.7358794E-1,-6.2446773E-1,7.57703E-1,4.8770683E-4,-3.788899E-1,-9.569659E-1,8.42473E-1,-5.690101E-1,6.3910764E-1,2.0874165E-1,-2.4039467E-1,9.079154E-1,-1.3413498E-1,-5.8746025E-2,-1.6642696E0,-5.513458E-1,3.1272098E-1,-2.6495528E-1,3.9747855E-1,-9.970378E-1,-4.867491E-2,9.173152E-1,-1.24635E-1,-1.8236116E-3,3.602744E-1,-2.3005275E-1,-1.6058234E0,-1.5506985E0,-2.545229E-1,-7.8005975E-1,5.159448E-1,9.890991E-1,-8.682818E-2,4.8666063E-1,1.3544783E-1,4.6847516E-1,-5.5449253E-1,1.0315511E0,1.8214315E-1,-6.1752427E-1,3.5508734E-1,3.0822745E-1,-9.9941134E-1,8.0587804E-1,-4.5025146E-1,3.004755E-1,-1.0054241E0,8.8774735E-1,1.3386613E-1],"categories":[],"categories_nodes":[],"categories_segments":[],"categories_sizes":[],"default_left":[1,1,1,1,1,1,1,1,1,1,1,0,0,1,1,1,1,1,1,0,1,1,1,1,1,0,1,1,1,1,0,1,1,1,1,1,1,0,0,1,1,1,1,0,0,0,0,0,0,0,0,0,0,0,0,0,0,0,0,0,0,0,0,0,0,0,0,0,0,0,0,0,0],"id":33,"left_children":[1,3,5,7,9,11,13,15,17,19,21,-1,-1,23,25,27,29,31,33,-1,35,37,39,41,43,-1,45,47,49,51,-1,53,55,57,59,61,63,-1,-1,65,67,69,71,-1,-1,-1,-1,-1,-1,-1,-1,-1,-1,-1,-1,-1,-1,-1,-1,-1,-1,-1,-1,-1,-1,-1,-1,-1,-1,-1,-1,-1,-1],"loss_changes":[2.0257337E0,2.2841547E0,2.903077E0,2.6503983E0,3.0530407E0,4.1219187E-1,2.3438163E0,5.958982E0,5.093951E0,4.0676346E0,7.1995544E0,0E0,0E0,2.9626367E0,3.6353817E0,4.723201E0,6.8888564E0,7.560598E0,2.64499E0,0E0,2.07592E0,2.6301374E0,3.8004365E0,2.3454537E0,7.251537E-1,0E0,1.4066763E0,5.3106174E0,5.654275E0,4.576005E0,0E0,5.3803105E0,1.837826E0,3.3056436E0,3.4694805E0,2.9677868E-1,1.0714217E0,0E0,0E0,4.1249847E0,4.326062E0,4.422638E0,1.4068167E0,0E0,0E0,0E0,0E0,0E0,0E0,0E0,0E0,0E0,0E0,0E0,0E0,0E0,0E0,0E0,0E0,0E0,0E0,0E0,0E0,0E0,0E0,0E0,0E0,0E0,0E0,0E0,0E0,0E0,0E0],"parents":[2147483647,0,0,1,1,2,2,3,3,4,4,5,5,6,6,7,7,8,8,9,9,10,10,13,13,14,14,15,15,16,16,17,17,18,18,20,20,21,21,22,22,23,23,24,24,26,26,27,27,28,28,29,29,31,31,32,32,33,33,34,34,35,35,36,36,39,39,40,40,41,41,42,42],"right_children":[2,4,6,8,10,12,14,16,18,20,22,-1,-1,24,26,28,30,32,34,-1,36,38,40,42,44,-1,46,48,50,52,-1,54,56,58,60,62,64,-1,-1,66,68,70,72,-1,-1,-1,-1,-1,-1,-1,-1,-1,-1,-1,-1,-1,-1,-1,-1,-1,-1,-1,-1,-1,-1,-1,-1,-1,-1,-1,-1,-1,-1],"split_conditions":[1.5750916E-1,1.2676929E-1,3.0302447E-1,1.882385E-1,3.4583917E-1,4.8016638E-1,7.556191E-1,1.7797473E-1,-2.5783408E-2,4.9577247E-2,3.9382124E-1,3.0133644E-1,4.4903297E-2,3.081017E-1,1.3724096E-2,3.3687837E-2,9.5378184E-1,4.0079015E-1,2.0290575E0,-2.9842034E-1,5.297583E-1,3.86483E-1,2.3130983E-1,4.5995644E-1,7.1893466E-1,-1.8734032E-1,8.71598E-1,7.154284E-3,4.1547424E-1,1.598255E-1,2.527419E-1,7.498604E-2,2.1241555E-1,1.8408154E-1,-1.4841282E-1,1.1500035E-1,-4.6146316E-3,-1.7623808E-2,-4.992809E-1,2.1989071E-1,4.9204874E-1,3.792676E-1,5.695505E-1,-2.9911137E-1,-1.4602474E-2,2.7519456E-1,-3.7390504E-2,-5.470835E-4,1.08082324E-1,-6.901583E-2,-4.8174703E-1,-4.6520957E-1,-7.635687E-2,-2.3401794E-1,1.5478344E-1,2.9672974E-1,-2.6048455E-2,1.459982E-1,4.063435E-2,1.4054255E-1,-1.6634777E-1,3.0946535E-1,5.464295E-2,-1.8525729E-1,1.065262E-1,9.246824E-2,-2.998234E-1,2.4176343E-1,-1.3507545E-1,9.014265E-2,-3.0162725E-1,2.6632422E-1,4.015984E-2],"split_indices":[26,26,3,24,22,15,17,24,8,16,22,0,0,18,23,11,8,20,25,0,19,17,16,19,10,0,5,11,20,6,0,11,2,6,1,11,11,0,0,0,6,12,17,0,0,0,0,0,0,0,0,0,0,0,0,0,0,0,0,0,0,0,0,0,0,0,0,0,0,0,0,0,0],"split_type":[0,0,0,0,0,0,0,0,0,0,0,0,0,0,0,0,0,0,0,0,0,0,0,0,0,0,0,0,0,0,0,0,0,0,0,0,0,0,0,0,0,0,0,0,0,0,0,0,0,0,0,0,0,0,0,0,0,0,0,0,0,0,0,0,0,0,0,0,0,0,0,0,0],"sum_hessian":[6.703942E3,6.665821E3,3.8121128E1,6.6336265E3,3.2194256E1,4.930823E0,3.3190304E1,6.429058E3,2.0456853E2,8.198696E0,2.399556E1,3.846372E0,1.0844511E0,2.342274E1,9.767562E0,6.416361E3,1.2697342E1,2.6634739E1,1.7793379E2,1.1939791E0,7.0047164E0,5.552133E0,1.8443426E1,1.9646374E1,3.7763681E0,1.591039E0,8.176523E0,6.3843745E3,3.1986101E1,1.0918319E1,1.7790227E0,2.0739254E1,5.8954835E0,1.6451811E2,1.3415673E1,4.401329E0,2.6033876E0,1.3636329E0,4.1885E0,8.910392E0,9.533034E0,8.841633E0,1.0804741E1,2.599652E0,1.1767161E0,6.890425E0,1.2860981E0,6.344611E3,3.9763706E1,2.9584732E1,2.401369E0,5.262591E0,5.655728E0,1.7597198E1,3.1420555E0,3.7331333E0,2.1623504E0,3.315595E1,1.3136217E2,3.9683142E0,9.447359E0,3.4007025E0,1.0006264E0,1.1775856E0,1.4258021E0,3.1601062E0,5.7502856E0,5.7562037E0,3.7768312E0,5.350294E0,3.4913387E0,2.9502375E0,7.8545027E0],"tree_param":{"num_deleted":"0","num_feature":"30","num_nodes":"73","size_leaf_vector":"0"}},{"base_weights":[6.996573E-4,3.3273036E-4,8.0047786E-1,-5.8702314E-1,7.905422E-4,7.156707E-2,-7.604108E-1,-1.0689879E-1,3.2525435E-3,-1.9510478E-1,3.5024688E-1,8.727259E-2,4.8337894E-5,-4.4279054E-2,-4.2276037E-1,4.4953468E-1,-7.707991E-1,3.2701932E-2,4.4096997E-1,-4.9832687E-2,8.946894E-3,-4.3730512E-1,6.4806886E-2,-1.3667094E0,-2.68559E-1,5.9458005E-1,-1.9951999E-1,7.336043E-2,-6.9607157E-1,1.0321395E0,3.2918572E-1,-4.419696E-2,-1.2812741E0,1.9424888E-1,2.0226496E-3],"categories":[],"categories_nodes":[],"categories_segments":[],"categories_sizes":[],"default_left":[1,1,0,1,1,0,0,1,1,1,1,1,1,1,1,1,0,1,1,1,1,0,0,0,0,0,0,0,0,0,0,0,0,0,0],"id":34,"left_children":[1,3,-1,5,7,-1,-1,9,11,13,15,17,19,21,23,25,-1,27,29,31,33,-1,-1,-1,-1,-1,-1,-1,-1,-1,-1,-1,-1,-1,-1],"loss_changes":[1.9661292E0,1.8017217E0,0E0,6.503296E-1,1.7752516E0,0E0,0E0,6.102966E0,1.7622334E0,4.310877E0,3.0805774E0,4.6268225E0,2.799625E0,3.3279839E0,6.9300375E0,2.3024201E0,0E0,6.255747E0,1.7789173E0,6.57014E0,6.8672214E0,0E0,0E0,0E0,0E0,0E0,0E0,0E0,0E0,0E0,0E0,0E0,0E0,0E0,0E0],"parents":[2147483647,0,0,1,1,3,3,4,4,7,7,8,8,9,9,10,10,11,11,12,12,13,13,14,14,15,15,17,17,18,18,19,19,20,20],"right_children":[2,4,-1,6,8,-1,-1,10,12,14,16,18,20,22,24,26,-1,28,30,32,34,-1,-1,-1,-1,-1,-1,-1,-1,-1,-1,-1,-1,-1,-1],"split_conditions":[1.1072595E0,-9.575236E-2,2.4014337E-1,-3.716708E-1,-4.3224806E-1,2.1470122E-2,-2.2812325E-1,-2.3345964E-1,-1.8457206E-1,-2.9507408E-1,-1.9476525E-1,-2.909636E-1,-2.9399133E-1,-3.485707E-1,-2.8912187E-1,-6.723717E-3,-2.3123974E-1,-2.9271194E-1,-1.8118069E-1,-2.9411513E-1,-2.991813E-1,-1.3119154E-1,1.9442067E-2,-4.100128E-1,-8.05677E-2,1.7837402E-1,-5.9856E-2,2.2008128E-2,-2.0882148E-1,3.0964187E-1,9.8755725E-2,-1.3259089E-2,-3.8438225E-1,5.8274668E-2,6.067949E-4],"split_indices":[22,8,0,29,28,0,0,6,11,6,0,24,6,24,6,1,0,6,23,6,24,0,0,0,0,0,0,0,0,0,0,0,0,0,0],"split_type":[0,0,0,0,0,0,0,0,0,0,0,0,0,0,0,0,0,0,0,0,0,0,0,0,0,0,0,0,0,0,0,0,0,0,0],"sum_hessian":[6.6997246E3,6.6976523E3,2.0723722E0,4.2185125E0,6.6934336E3,1.0015395E0,3.2169733E0,1.4865735E2,6.5447764E3,1.2509379E2,2.356356E1,2.3946025E2,6.3053164E3,7.59621E1,4.913169E1,2.219667E1,1.3668909E0,2.0839952E2,3.1060732E1,9.538564E2,5.35146E3,1.5849408E1,6.0112694E1,5.794895E0,4.3336796E1,1.8210964E1,3.9857066E0,1.9823904E2,1.016048E1,3.6300323E0,2.7430698E1,9.505421E2,3.3142931E0,1.9179219E2,5.1596675E3],"tree_param":{"num_deleted":"0","num_feature":"30","num_nodes":"35","size_leaf_vector":"0"}},{"base_weights":[5.158452E-4,1.2747824E-4,7.2506946E-1,-2.2786307E-4,7.054162E-1,-5.641717E-4,6.9251144E-1,2.5884393E-3,-7.8373715E-2,7.519079E-4,2.2498736E-1,-4.5863062E-1,1.6499255E-2,1.6794001E-3,-6.4367676E-1,7.9150635E-1,5.3715102E-2,5.2116054E-1,-6.179995E-1,6.534891E-1,-2.5191694E-2],"categories":[],"categories_nodes":[],"categories_segments":[],"categories_sizes":[],"default_left":[1,1,0,1,0,1,0,1,1,1,1,1,1,0,0,0,0,0,0,0,0],"id":35,"left_children":[1,3,-1,5,-1,7,-1,9,11,13,15,17,19,-1,-1,-1,-1,-1,-1,-1,-1],"loss_changes":[1.8842484E0,1.6777724E0,0E0,1.5593429E0,0E0,1.6411039E0,0E0,2.6260219E0,9.405673E0,3.8132935E0,5.0668054E0,8.449966E0,5.5789094E0,0E0,0E0,0E0,0E0,0E0,0E0,0E0,0E0],"parents":[2147483647,0,0,1,1,3,3,5,5,7,7,8,8,9,9,10,10,11,11,12,12],"right_children":[2,4,-1,6,-1,8,-1,10,12,14,16,18,20,-1,-1,-1,-1,-1,-1,-1,-1],"split_conditions":[5.260403E-1,6.0269606E-1,2.1752085E-1,3.7786102E-1,2.1162488E-1,1.9581458E-1,2.0775343E-1,3.0574027E-1,-7.051547E-2,2.8736997E-1,3.3948016E-1,-1.5120992E-1,-7.715395E-2,5.038201E-4,-1.9310303E-1,2.3745191E-1,1.6114531E-2,1.5634817E-1,-1.8539986E-1,1.9604674E-1,-7.5575085E-3],"split_indices":[2,20,0,1,0,28,0,24,27,24,24,12,11,0,0,0,0,0,0,0,0],"split_type":[0,0,0,0,0,0,0,0,0,0,0,0,0,0,0,0,0,0,0,0,0],"sum_hessian":[6.6954814E3,6.6928945E3,2.5872726E0,6.690523E3,2.3711686E0,6.6882754E3,2.2478144E0,6.4287676E3,2.5950778E2,6.37711E3,5.165768E1,5.1052395E1,2.084554E2,6.368941E3,8.169087E0,1.1151248E1,4.050643E1,6.8246527E0,4.422774E1,1.1903836E1,1.9655156E2],"tree_param":{"num_deleted":"0","num_feature":"30","num_nodes":"21","size_leaf_vector":"0"}},{"base_weights":[6.305694E-4,1.3276286E-4,5.4136616E-1,6.55782E-4,-8.4494925E-1,5.178885E-2,7.7124214E-1,-7.6775893E-4,1.967918E-1,-1.6056856E-2,-1.1929963E0,-4.6503294E-1,5.33718E-1,6.93564E-4,-4.487192E-1,9.532279E-1,1.3687918E-1,-5.6974444E-4,2.5602952E-1,-5.822118E-1,5.2485704E-1,-6.724604E-1,2.1713519E-1,8.603064E-4,-4.49273E-1,-6.014649E-1,4.2027172E-1,-1.2818475E0,-3.5876116E-1,6.5899265E-1,1.19712256E-1,2.2493467E-1,-1.0260009E0,8.74974E-1,8.8501126E-2],"categories":[],"categories_nodes":[],"categories_segments":[],"categories_sizes":[],"default_left":[1,1,1,1,1,1,0,1,1,0,0,0,0,1,1,0,1,1,1,1,1,1,1,0,0,0,0,0,0,0,0,0,0,0,0],"id":36,"left_children":[1,3,5,7,9,11,-1,13,15,-1,-1,-1,-1,17,19,-1,21,23,25,27,29,31,33,-1,-1,-1,-1,-1,-1,-1,-1,-1,-1,-1,-1],"loss_changes":[1.802227E0,2.9576333E0,6.5309274E-1,1.8672618E0,1.174871E0,1.0052634E0,0E0,4.346858E0,2.0534608E0,0E0,0E0,0E0,0E0,2.135351E0,3.111826E0,0E0,3.1222377E0,4.2275715E0,4.8428345E0,2.5828137E0,9.118378E-2,1.6197124E0,3.5140603E0,0E0,0E0,0E0,0E0,0E0,0E0,0E0,0E0,0E0,0E0,0E0,0E0],"parents":[2147483647,0,0,1,1,2,2,3,3,4,4,5,5,7,7,8,8,13,13,14,14,16,16,17,17,18,18,19,19,20,20,21,21,22,22],"right_children":[2,4,6,8,10,12,-1,14,16,-1,-1,-1,-1,18,20,-1,22,24,26,28,30,32,34,-1,-1,-1,-1,-1,-1,-1,-1,-1,-1,-1,-1],"split_conditions":[2.8511468E-1,2.566553E-1,5.0875807E-1,2.040102E-1,3.8618314E-1,6.3052094E-1,2.3137265E-1,6.274948E-1,-1.2148547E-1,-4.817057E-3,-3.578989E-1,-1.3950989E-1,1.601154E-1,4.5945284E-1,-7.347228E-2,2.8596836E-1,3.356135E-1,4.0592802E-1,-7.111276E-2,9.237454E-2,2.5047824E-1,1.0258949E-1,2.1241881E-1,2.5809192E-4,-1.347819E-1,-1.8043949E-1,1.2608153E-1,-3.8455427E-1,-1.0762835E-1,1.976978E-1,3.591368E-2,6.74804E-2,-3.0780026E-1,2.624922E-1,2.655034E-2],"split_indices":[11,11,29,27,15,0,0,29,19,0,0,0,0,28,13,0,22,28,23,17,28,11,17,0,0,0,0,0,0,0,0,0,0,0,0],"split_type":[0,0,0,0,0,0,0,0,0,0,0,0,0,0,0,0,0,0,0,0,0,0,0,0,0,0,0,0,0,0,0,0,0,0,0],"sum_hessian":[6.6944727E3,6.6893145E3,5.1580043E0,6.686176E3,3.1388333E0,2.0395572E0,3.118447E0,6.6389863E3,4.7189194E1,1.2375876E0,1.9012458E0,1.0010687E0,1.0384886E0,6.618394E3,2.0592304E1,2.3689795E0,4.4820213E1,6.5868027E3,3.1591312E1,1.8462757E1,2.1295474E0,3.3778129E0,4.14424E1,6.566872E3,1.993103E1,4.650322E0,2.694099E1,3.322677E0,1.514008E1,1.1291474E0,1.0004E0,1.057448E0,2.3203647E0,5.829272E0,3.561313E1],"tree_param":{"num_deleted":"0","num_feature":"30","num_nodes":"35","size_leaf_vector":"0"}},{"base_weights":[5.0775794E-4,-2.3220886E-2,1.1538593E-2,-2.7621146E-2,3.676305E-1,1.0351217E0,1.0474005E-2,-8.175971E-3,-1.29728E-1,-3.5337064E-2,6.272434E-1,-1.3734505E0,1.3117343E-2,-2.2532677E-2,2.1871932E-1,-1.4820127E-1,1.0626671E0,3.3995423E-1,-1.0009432E0,-2.3205319E-1,8.1719273E-1,-4.8527798E-1,-1.6530473E0,2.6842758E-1,8.600883E-3,-1.9242125E-2,-9.0882444E-1,5.9902227E-1,1.10589534E-1,-1.3082287E-1,-9.0653473E-1,7.6928246E-1,-4.3239915E-1,4.0138143E-1,-7.09687E-1,4.9322894E-1,1.0985723E0,-1.0306827E0,2.8024587E-1,-1.9931659E0,-3.8831642E-1,4.560294E-2,6.049016E-1,-7.974091E-1,1.0166317E-2,-2.7035838E-2,4.1566938E-1,-1.2252343E0,2.5846452E-1,8.1002194E-1,-3.0156443E-1,1.8282872E-1,-7.542607E-1,-1.767335E-1,2.2060387E-1,3.4887257E-1,-1.2631358E0,1.0216784E0,1.4642558E-1,-1.1531817E0,6.961901E-1,1.0394857E0,-2.2886486E-1,3.314281E-1,-1.0536984E0,6.7924976E-1,-7.840012E-1,7.385643E-1,-1.1754993E0,-4.9993557E-1,1.1881209E-2],"categories":[],"categories_nodes":[],"categories_segments":[],"categories_sizes":[],"default_left":[1,1,1,1,1,0,1,1,1,1,1,1,1,1,1,1,0,1,0,1,1,1,1,1,1,1,1,1,1,1,1,1,1,0,0,1,0,0,0,0,0,1,1,1,1,0,0,0,0,0,0,0,0,0,0,0,0,0,0,0,0,0,0,0,0,0,0,0,0,0,0],"id":37,"left_children":[1,3,5,7,9,-1,11,13,15,17,19,21,23,25,27,29,-1,31,-1,33,35,37,39,41,43,45,47,49,51,53,55,57,59,-1,-1,61,-1,-1,-1,-1,-1,63,65,67,69,-1,-1,-1,-1,-1,-1,-1,-1,-1,-1,-1,-1,-1,-1,-1,-1,-1,-1,-1,-1,-1,-1,-1,-1,-1,-1],"loss_changes":[1.752307E0,3.6640453E0,4.969171E0,4.1720743E0,2.5038571E0,0E0,1.6722586E1,5.7597404E0,7.562442E0,4.0516067E0,2.5531907E0,1.3619423E0,5.25426E0,4.830794E0,4.26084E0,4.255634E0,0E0,3.025683E0,0E0,1.3136195E0,5.5934906E-1,1.7510464E0,1.898426E0,5.9110084E0,5.6613255E0,5.6287746E0,2.5798798E0,4.6278276E0,5.333215E0,5.2931166E0,3.6941304E0,7.275748E-1,3.6839533E0,0E0,0E0,3.1686587E0,0E0,0E0,0E0,0E0,0E0,1.5661535E1,3.7827091E0,5.9192176E0,3.9185565E0,0E0,0E0,0E0,0E0,0E0,0E0,0E0,0E0,0E0,0E0,0E0,0E0,0E0,0E0,0E0,0E0,0E0,0E0,0E0,0E0,0E0,0E0,0E0,0E0,0E0,0E0],"parents":[2147483647,0,0,1,1,2,2,3,3,4,4,6,6,7,7,8,8,9,9,10,10,11,11,12,12,13,13,14,14,15,15,17,17,19,19,20,20,21,21,22,22,23,23,24,24,25,25,26,26,27,27,28,28,29,29,30,30,31,31,32,32,35,35,41,41,42,42,43,43,44,44],"right_children":[2,4,6,8,10,-1,12,14,16,18,20,22,24,26,28,30,-1,32,-1,34,36,38,40,42,44,46,48,50,52,54,56,58,60,-1,-1,62,-1,-1,-1,-1,-1,64,66,68,70,-1,-1,-1,-1,-1,-1,-1,-1,-1,-1,-1,-1,-1,-1,-1,-1,-1,-1,-1,-1,-1,-1,-1,-1,-1,-1],"split_conditions":[-2.5389305E-1,1.0454806E-1,-3.2605207E-1,-1.688065E-1,-1.0794242E-1,3.105365E-1,-3.211922E-1,-2.3099732E-1,9.497433E-2,-1.4219208E-1,3.081659E-1,-3.3475596E-1,-1.7949384E-1,1.9894257E-2,-1.6375047E-1,1.7064084E-1,3.1880015E-1,-1.17527634E-1,-3.0028296E-1,-1.2570387E-1,-1.9073947E-1,-3.366593E-1,-3.2453483E-1,-3.1193274E-1,-1.7935407E-1,-1.182354E-1,-3.495074E-1,-1.4708127E-1,-3.2277855E-1,-6.0828444E-2,-5.3604405E-2,-3.2235134E-1,-1.9073947E-1,1.20414436E-1,-2.129061E-1,-1.7913266E-1,3.295717E-1,-3.0920482E-1,8.407377E-2,-5.979498E-1,-1.1649493E-1,-3.133205E-1,-2.6320362E-1,-3.0282927E-1,-2.9540992E-1,-8.110751E-3,1.2470082E-1,-3.6757028E-1,7.7539355E-2,2.4300659E-1,-9.046933E-2,5.484862E-2,-2.2627823E-1,-5.302005E-2,6.618116E-2,1.0466178E-1,-3.7894076E-1,3.0650353E-1,4.3927673E-2,-3.459545E-1,2.0885704E-1,3.1184572E-1,-6.865946E-2,9.942844E-2,-3.1610954E-1,2.0377494E-1,-2.3520036E-1,2.215693E-1,-3.526498E-1,-1.4998068E-1,3.5643629E-3],"split_indices":[19,13,6,26,23,0,6,0,6,12,14,24,23,6,23,5,0,23,0,24,0,24,24,6,23,23,22,12,17,22,21,28,0,0,0,12,0,0,0,0,0,6,0,12,0,0,0,0,0,0,0,0,0,0,0,0,0,0,0,0,0,0,0,0,0,0,0,0,0,0,0],"split_type":[0,0,0,0,0,0,0,0,0,0,0,0,0,0,0,0,0,0,0,0,0,0,0,0,0,0,0,0,0,0,0,0,0,0,0,0,0,0,0,0,0,0,0,0,0,0,0,0,0,0,0,0,0,0,0,0,0,0,0,0,0,0,0,0,0,0,0,0,0,0,0],"sum_hessian":[6.692642E3,2.1235427E3,4.569099E3,2.1008208E3,2.272201E1,3.7380192E0,4.5653613E3,1.7656512E3,3.351696E2,9.241447E0,1.3480562E1,7.7147217E0,4.5576465E3,1.6614259E3,1.0422535E2,3.3091852E2,4.251068E0,7.1215363E0,2.119911E0,2.4003146E0,1.1080248E1,2.5021098E0,5.2126117E0,7.8207954E1,4.4794385E3,1.6562982E3,5.12766E0,2.2068487E1,8.215686E1,3.2465112E2,6.267378E0,4.57976E0,2.5417762E0,1.1004936E0,1.299821E0,6.4300084E0,4.650239E0,1.2588527E0,1.243257E0,3.653998E0,1.558614E0,4.7733032E1,3.0474922E1,7.697637E0,4.4717407E3,1.6280608E3,2.8237381E1,3.9950933E0,1.1325663E0,1.7960955E1,4.107533E0,7.655129E1,5.605573E0,2.8757874E2,3.7072388E1,1.3912349E0,4.876143E0,2.803434E0,1.7763264E0,1.5378352E0,1.0039409E0,3.4104745E0,3.019534E0,3.8437546E1,9.295489E0,2.9411467E1,1.0634549E0,1.3322062E0,6.365431E0,1.40095625E1,4.4577314E3],"tree_param":{"num_deleted":"0","num_feature":"30","num_nodes":"71","size_leaf_vector":"0"}},{"base_weights":[6.6366704E-4,3.2370054E-4,6.978811E-1,1.4954005E-1,-1.2398219E-3,3.5801806E-2,9.048193E-1,-7.855911E-1,-2.8387213E-4,-2.017719E-1,4.437275E-1,1.0638589E0,-1.0291925E-1,-1.5866162E-1,-1.836446E0,8.78558E-1,-1.2533707E-3,-2.8873825E-1,6.5025777E-1,2.0793404E-1,1.1900299E0,1.1597791E0,2.0951428E-1,5.884008E-1,-6.247444E-1,1.0395349E0,3.863236E-1,-1.167351E0,-5.3996424E-4,-1.47273E-1,-1.117605E0,9.841469E-1,-8.693367E-2,4.1808966E-1,-4.4769028E-1,-1.2554651E0,6.664094E-1,-1.3244466E-1,7.372918E-1,-2.6580763E-1,-1.6690875E0,-1.864972E-1,1.2122056E-3],"categories":[],"categories_nodes":[],"categories_segments":[],"categories_sizes":[],"default_left":[1,1,0,1,1,1,1,1,1,1,1,1,0,1,0,1,1,1,1,1,0,0,0,0,1,0,1,1,1,0,0,0,0,0,0,0,0,0,0,0,0,0,0],"id":38,"left_children":[1,3,-1,5,7,9,11,13,15,17,19,21,-1,23,-1,25,27,29,31,33,-1,-1,-1,-1,35,-1,37,39,41,-1,-1,-1,-1,-1,-1,-1,-1,-1,-1,-1,-1,-1,-1],"loss_changes":[1.5857283E0,1.5606722E0,0E0,5.9265027E0,4.9636807E0,6.033091E0,1.5579553E0,5.017655E0,5.635819E0,3.1105187E0,3.779623E0,4.0390968E-1,0E0,2.5061588E0,0E0,1.759572E-1,5.495703E0,4.1133585E0,1.0604458E0,2.750201E0,0E0,0E0,0E0,0E0,4.3117027E0,0E0,7.1444774E-1,1.3833923E0,2.1519704E0,0E0,0E0,0E0,0E0,0E0,0E0,0E0,0E0,0E0,0E0,0E0,0E0,0E0,0E0],"parents":[2147483647,0,0,1,1,3,3,4,4,5,5,6,6,7,7,8,8,9,9,10,10,11,11,13,13,15,15,16,16,17,17,18,18,19,19,24,24,26,26,27,27,28,28],"right_children":[2,4,-1,6,8,10,12,14,16,18,20,22,-1,24,-1,26,28,30,32,34,-1,-1,-1,-1,36,-1,38,40,42,-1,-1,-1,-1,-1,-1,-1,-1,-1,-1,-1,-1,-1,-1],"split_conditions":[2.3362699E0,-3.483959E-1,2.0936434E-1,-3.4989142E-1,-3.4725213E-1,-4.0461883E-2,7.1477073E-1,-3.4753847E-1,-3.4605128E-1,-1.7996842E-1,-1.601783E-1,1.4859046E-1,-3.0875776E-2,-5.098475E-1,-5.5093384E-1,-3.3781415E-1,-3.4596747E-1,-1.8412744E-1,2.0005817E0,8.1117356E-1,3.5700896E-1,3.4793374E-1,6.285428E-2,1.7652024E-1,-3.4775913E-1,3.118605E-1,-3.5367516E-1,-2.0191099E-1,-3.486291E-1,-4.4181902E-2,-3.352815E-1,2.9524407E-1,-2.6080104E-2,1.254269E-1,-1.3430709E-1,-3.7663957E-1,1.9992281E-1,-3.9733402E-2,2.2118755E-1,-7.974229E-2,-5.007263E-1,-5.5949163E-2,3.636617E-4],"split_indices":[7,6,0,6,6,13,7,6,6,23,11,14,0,17,0,12,6,23,25,25,0,0,0,0,6,0,24,26,24,0,0,0,0,0,0,0,0,0,0,0,0,0,0],"split_type":[0,0,0,0,0,0,0,0,0,0,0,0,0,0,0,0,0,0,0,0,0,0,0,0,0,0,0,0,0,0,0,0,0,0,0,0,0,0,0,0,0,0,0],"sum_hessian":[6.689927E3,6.6876665E3,2.2604735E0,6.836681E1,6.6193E3,6.0329185E1,8.037629E0,7.0584893E0,6.612241E3,3.8444622E1,2.1884567E1,6.893949E0,1.1436806E0,5.141879E0,1.9166101E0,6.2888136E0,6.6059526E3,3.548391E1,2.9607122E0,1.7601889E1,4.282679E0,5.876651E0,1.0172983E0,1.8746506E0,3.2672284E0,3.9011412E0,2.3876722E0,3.0391304E0,6.602913E3,3.1316673E1,4.167234E0,1.8071996E0,1.1535127E0,1.36036415E1,3.998246E0,2.2135592E0,1.0536691E0,1.2147593E0,1.1729128E0,1.633592E0,1.4055383E0,6.0650562E1,6.5422627E3],"tree_param":{"num_deleted":"0","num_feature":"30","num_nodes":"43","size_leaf_vector":"0"}},{"base_weights":[6.2634784E-4,2.9642254E-4,7.065528E-1,1.7940573E-2,-1.2666875E-2,1.3509671E-2,3.303381E-1,-1.6747355E-1,1.7879602E-4,2.1730755E-2,-2.1422589E-1,4.0118432E-1,-9.327043E-1,-4.4611186E-1,-1.0619219E-1,8.4432416E-2,-1.2162686E-2,7.5291786E-3,2.704734E-1,-2.2914193E0,-1.5590604E-1,7.6283775E-2,6.0950476E-1,1.0348459E-1,-5.878922E-1,1.6446304E-1,-2.1021326E-1,1.0692989E-1,-6.9347894E-1,-1.1540833E0,-6.4126565E-3,9.378808E-3,-1.3706756E0,3.252663E-1,-4.3359923E-1,-2.923826E-1,4.1306475E-1,2.5933385E-1,-1.3245028E0,1.1506997E0,2.7483645E-1,-4.858847E-1,7.41706E-1,-1.3917667E0,-4.949862E-1,-8.246834E-1,2.1378575E-1,-1.3942254E0,-1.5655398E-1,8.3211966E-2,8.472925E-1,8.295339E-1,-9.2651415E-1,-1.5766345E0,-5.182102E-2,-1.4473859E0,-5.346829E-3],"categories":[],"categories_nodes":[],"categories_segments":[],"categories_sizes":[],"default_left":[1,1,0,1,1,1,1,1,1,1,1,1,0,1,1,1,1,1,1,0,1,1,1,1,1,1,1,1,1,1,1,0,0,0,0,0,0,0,0,0,0,0,0,0,0,0,0,0,0,0,0,0,0,0,0,0,0],"id":39,"left_children":[1,3,-1,5,7,9,11,13,15,17,19,21,-1,23,25,27,29,31,33,-1,35,37,39,41,43,45,47,49,51,53,55,-1,-1,-1,-1,-1,-1,-1,-1,-1,-1,-1,-1,-1,-1,-1,-1,-1,-1,-1,-1,-1,-1,-1,-1,-1,-1],"loss_changes":[1.5578439E0,1.5298542E0,0E0,3.916754E0,7.6675587E0,5.2361584E0,3.9154315E0,4.9972296E0,3.7041378E0,9.52808E0,1.1447794E1,2.5371404E0,0E0,4.1867E0,6.889568E0,8.039545E0,2.0394587E1,6.521211E0,5.761095E0,0E0,7.564415E0,4.4605656E0,3.870534E0,4.764505E0,2.4657917E0,3.5016131E0,1.098418E1,7.712235E0,5.356349E0,7.166458E0,4.7419944E0,0E0,0E0,0E0,0E0,0E0,0E0,0E0,0E0,0E0,0E0,0E0,0E0,0E0,0E0,0E0,0E0,0E0,0E0,0E0,0E0,0E0,0E0,0E0,0E0,0E0,0E0],"parents":[2147483647,0,0,1,1,3,3,4,4,5,5,6,6,7,7,8,8,9,9,10,10,11,11,13,13,14,14,15,15,16,16,17,17,18,18,20,20,21,21,22,22,23,23,24,24,25,25,26,26,27,27,28,28,29,29,30,30],"right_children":[2,4,-1,6,8,10,12,14,16,18,20,22,-1,24,26,28,30,32,34,-1,36,38,40,42,44,46,48,50,52,54,56,-1,-1,-1,-1,-1,-1,-1,-1,-1,-1,-1,-1,-1,-1,-1,-1,-1,-1,-1,-1,-1,-1,-1,-1,-1,-1],"split_conditions":[6.945685E-1,-2.5936976E-1,2.1196584E-1,-9.86571E-2,-2.512211E-1,-2.0094195E-1,-1.3207299E-1,-2.8639227E-1,-2.453621E-1,-2.3946136E-1,-1.6526255E-1,-2.3362556E-1,-2.7981132E-1,-1.7770982E-1,-2.647693E-1,-1.1020593E-1,-2.4517268E-1,-2.3973253E-1,9.4482794E-2,-6.874258E-1,-2.6822463E-1,-2.386881E-1,-1.5385415E-1,-1.785883E-1,-1.7747927E-1,-1.7538133E-1,-1.6989921E-1,-2.3074979E-1,-3.2732597E-1,-6.468338E-2,-1.7023537E-1,2.8136424E-3,-4.112027E-1,9.75799E-2,-1.3007978E-1,-8.7714784E-2,1.2391943E-1,7.7800155E-2,-3.9735088E-1,3.4520993E-1,8.245094E-2,-1.4576541E-1,2.2251181E-1,-4.1753003E-1,-1.4849587E-1,-2.4740504E-1,6.413573E-2,-4.1826764E-1,-4.69662E-2,2.4963591E-2,2.5418776E-1,2.4886017E-1,-2.7795425E-1,-4.7299036E-1,-1.5546306E-2,-4.3421578E-1,-1.6040488E-3],"split_indices":[6,12,0,29,12,6,9,24,6,6,23,6,0,23,6,27,6,6,1,0,12,6,23,23,23,23,23,24,6,17,11,0,0,0,0,0,0,0,0,0,0,0,0,0,0,0,0,0,0,0,0,0,0,0,0,0,0],"split_type":[0,0,0,0,0,0,0,0,0,0,0,0,0,0,0,0,0,0,0,0,0,0,0,0,0,0,0,0,0,0,0,0,0,0,0,0,0,0,0,0,0,0,0,0,0,0,0,0,0,0,0,0,0,0,0,0,0],"sum_hessian":[6.688709E3,6.6865845E3,2.124656E0,2.8318337E3,3.8547507E3,2.7932588E3,3.857505E1,2.944321E2,3.5603186E3,2.6968105E3,9.644826E1,3.7172356E1,1.4026943E0,5.1948658E1,2.4248343E2,4.5413815E2,3.1061807E3,2.5521306E3,1.4467969E2,1.5882596E0,9.486E1,1.5056357E1,2.2115997E1,1.0708475E1,4.124018E1,6.7159164E1,1.7532426E2,4.4221176E2,1.192638E1,1.456193E1,3.0916187E3,2.5497021E3,2.4286494E0,1.3473245E2,9.947238E0,7.690036E1,1.7959639E1,1.4036924E1,1.0194325E0,7.5188575E0,1.4597139E1,5.6914043E0,5.0170712E0,2.8240993E0,3.8416084E1,2.4431262E0,6.4716034E1,6.518054E0,1.6880621E2,4.2956287E2,1.2648893E1,1.2429999E0,1.068338E1,1.0215474E1,4.3464556E0,1.2820817E0,3.0903367E3],"tree_param":{"num_deleted":"0","num_feature":"30","num_nodes":"57","size_leaf_vector":"0"}},{"base_weights":[4.997596E-4,-4.2663518E-4,2.4085014E-1,-8.497144E-4,6.300979E-1,6.3590425E-1,5.6353267E-2,-3.7479197E-4,-5.970096E-1,1.05475515E-1,7.6707596E-1,9.941427E-1,2.1883375E-3,-9.078732E-1,1.7858763E-1,1.6060307E-3,-1.2801154E-1,-8.60969E-1,1.0232774E-1,-6.4414155E-1,6.596124E-1,5.1566505E-1,-2.9299584E-1,-2.4074918E-6,2.2772168E-1,-6.29526E-2,-6.781456E-1,-1.3252717E0,5.261879E-2,-2.579936E-1,6.8447053E-1,-1.1211092E0,3.5608312E-1,1.3029075E-3,-2.804605E-1,4.4112772E-1,-1.4168875E-1,-1.2962604E-1,7.162192E-1,-1.0305823E0,1.4763631E-1,9.8512757E-1,3.7825638E-1,-3.115966E-1,-1.3375783E0,7.537462E-1,-3.173676E-1],"categories":[],"categories_nodes":[],"categories_segments":[],"categories_sizes":[],"default_left":[1,1,1,1,1,1,1,1,1,0,0,0,1,0,1,1,1,1,0,0,0,1,1,1,1,1,1,0,0,0,1,1,1,0,0,0,0,0,0,0,0,0,0,0,0,0,0],"id":40,"left_children":[1,3,5,7,9,11,13,15,17,-1,-1,-1,19,-1,21,23,25,27,-1,-1,-1,29,31,33,35,37,39,-1,-1,-1,41,43,45,-1,-1,-1,-1,-1,-1,-1,-1,-1,-1,-1,-1,-1,-1],"loss_changes":[1.4887146E0,1.7774175E0,1.8352635E0,1.884702E0,2.4015677E-1,1.8310549E0,2.3539305E0,1.6822971E0,1.0662279E0,0E0,0E0,0E0,2.089903E0,0E0,2.9074178E0,2.3830914E0,3.5967808E0,1.7465286E0,0E0,0E0,0E0,1.5445065E0,4.6269894E0,2.38256E0,3.7110248E0,4.8740654E0,3.252087E0,0E0,0E0,0E0,4.4417048E-1,2.3108292E-1,1.623327E0,0E0,0E0,0E0,0E0,0E0,0E0,0E0,0E0,0E0,0E0,0E0,0E0,0E0,0E0],"parents":[2147483647,0,0,1,1,2,2,3,3,4,4,5,5,6,6,7,7,8,8,12,12,14,14,15,15,16,16,17,17,21,21,22,22,23,23,24,24,25,25,26,26,30,30,31,31,32,32],"right_children":[2,4,6,8,10,12,14,16,18,-1,-1,-1,20,-1,22,24,26,28,-1,-1,-1,30,32,34,36,38,40,-1,-1,-1,42,44,46,-1,-1,-1,-1,-1,-1,-1,-1,-1,-1,-1,-1,-1,-1],"split_conditions":[5.0357866E-1,6.466241E-1,9.5378184E-1,5.90263E-1,4.232942E-2,-3.848874E-2,-3.487208E-1,4.1547424E-1,1.3831252E-1,3.1642657E-2,2.3012279E-1,2.9824284E-1,1.5661418E-3,-2.7236196E-1,-8.901565E-2,3.8092214E-1,3.3890456E-1,2.223607E-1,3.0698324E-2,-1.9324248E-1,1.9788374E-1,-1.6052508E-1,4.2875208E-2,5.211194E-1,1.7908728E-1,2.6007742E-1,1.4805074E-1,-3.9758155E-1,1.5785638E-2,-7.7398084E-2,-1.7862266E-1,-7.347228E-2,3.9567503E-1,3.9087227E-4,-8.4138155E-2,1.3233832E-1,-4.2506628E-2,-3.8887814E-2,2.1486576E-1,-3.0917472E-1,4.4290893E-2,2.9553828E-1,1.1347692E-1,-9.3478985E-2,-4.0127352E-1,2.2612387E-1,-9.521029E-2],"split_indices":[20,0,8,0,25,23,22,20,20,0,0,0,3,0,18,0,12,23,0,0,0,23,24,5,23,24,26,0,0,0,29,13,14,0,0,0,0,0,0,0,0,0,0,0,0,0,0],"split_type":[0,0,0,0,0,0,0,0,0,0,0,0,0,0,0,0,0,0,0,0,0,0,0,0,0,0,0,0,0,0,0,0,0,0,0,0,0,0,0,0,0,0,0,0,0,0,0],"sum_hessian":[6.6846025E3,6.659931E3,2.4671492E1,6.6564634E3,3.4678056E0,7.075142E0,1.759635E1,6.6521646E3,4.298725E0,1.0844412E0,2.3833644E0,4.156646E0,2.9184961E0,1.2565936E0,1.6339756E1,6.5514785E3,1.0068642E2,2.9530127E0,1.3457125E0,1.4818534E0,1.4366429E0,9.474277E0,6.865479E0,6.5061973E3,4.528083E1,9.1035034E1,9.651386E0,1.6591684E0,1.2938443E0,1.6023121E0,7.8719645E0,2.6971488E0,4.16833E0,6.4770474E3,2.9150276E1,2.8577597E1,1.6703236E1,8.462715E1,6.407877E0,6.5905757E0,3.0608103E0,2.8533134E0,5.018651E0,1.0837572E0,1.6133918E0,2.545826E0,1.6225041E0],"tree_param":{"num_deleted":"0","num_feature":"30","num_nodes":"47","size_leaf_vector":"0"}},{"base_weights":[4.5410663E-4,-4.9878476E-4,2.5089848E-1,7.680118E-4,-2.439864E-1,-5.4041054E-2,5.236361E-1,2.5811658E-4,6.8173933E-1,-3.9318994E-1,3.4718448E-1,3.1217226E-1,-7.01784E-1,8.971286E-1,3.9982475E-2,-9.502399E-3,2.429561E-2,9.44506E-1,-5.9035324E-2,-2.0605424E-1,-1.3641284E0,8.8742375E-1,-5.196201E-1,5.479166E-1,-6.892775E-1,1.4760521E-1,-1.2400038E0,9.906216E-1,1.8239738E-1,-3.8094962E-1,7.4050426E-1,-2.8376246E-3,-1.1660456E-1,-1.8705112E-1,3.9214846E-2,6.1653767E-2,-8.3667123E-1,-1.7182137E0,-9.469381E-2,-9.974289E-1,1.0557332E-1,-6.1713744E-2,6.885402E-1,-1.4764766E0,-3.8534772E-1,3.1612074E-1,-7.667269E-1,-1.3859423E-2,9.861558E-2,-1.4943509E-1,3.6999932E-1,-1.2154643E-1,-1.588311E0,2.3356324E-1,1.80645E-2,-2.0617048E-1,1.0162641E0,-1.2037796E0,4.0660304E-1,9.802351E-1,1.0054134E-1,-1.4108357E-1,-1.0527713E0],"categories":[],"categories_nodes":[],"categories_segments":[],"categories_sizes":[],"default_left":[1,1,1,1,1,1,1,1,1,1,1,1,1,1,1,1,1,0,0,1,1,0,1,1,0,0,1,0,0,1,0,1,1,1,1,1,1,0,0,0,0,0,1,0,0,0,1,0,0,0,0,0,0,0,0,0,0,0,0,0,0,0,0],"id":41,"left_children":[1,3,5,7,9,11,13,15,17,19,21,23,25,27,29,31,33,-1,-1,35,37,-1,39,41,-1,-1,43,-1,-1,45,-1,47,49,51,53,55,57,-1,-1,-1,-1,-1,59,-1,-1,-1,61,-1,-1,-1,-1,-1,-1,-1,-1,-1,-1,-1,-1,-1,-1,-1,-1],"loss_changes":[1.5951693E0,2.0542684E0,2.1354394E0,2.300499E0,3.176988E0,3.2715707E0,2.3969336E0,1.5538623E0,1.0206892E0,4.805152E0,3.9628186E0,2.4818275E0,2.4484866E0,3.239956E-1,2.321141E0,3.3619509E0,6.038119E0,0E0,0E0,4.2125897E0,1.7905493E0,0E0,1.1513723E0,7.087326E-1,0E0,0E0,6.5598965E-2,0E0,0E0,1.5815179E0,0E0,4.9610186E0,4.463213E0,1.1398629E1,7.342734E0,4.8712816E0,3.873221E0,0E0,0E0,0E0,0E0,0E0,9.986572E-1,0E0,0E0,0E0,4.7741318E-1,0E0,0E0,0E0,0E0,0E0,0E0,0E0,0E0,0E0,0E0,0E0,0E0,0E0,0E0,0E0,0E0],"parents":[2147483647,0,0,1,1,2,2,3,3,4,4,5,5,6,6,7,7,8,8,9,9,10,10,11,11,12,12,13,13,14,14,15,15,16,16,19,19,20,20,22,22,23,23,26,26,29,29,31,31,32,32,33,33,34,34,35,35,36,36,42,42,46,46],"right_children":[2,4,6,8,10,12,14,16,18,20,22,24,26,28,30,32,34,-1,-1,36,38,-1,40,42,-1,-1,44,-1,-1,46,-1,48,50,52,54,56,58,-1,-1,-1,-1,-1,60,-1,-1,-1,62,-1,-1,-1,-1,-1,-1,-1,-1,-1,-1,-1,-1,-1,-1,-1,-1],"split_conditions":[7.5753975E-1,5.942689E-1,8.8935584E-2,2.5998282E-1,5.0185585E-1,4.738459E-1,4.992739E-1,5.5105776E-2,4.419663E-1,4.235798E-1,6.5143716E-1,2.7382416E-1,2.4404542E-1,1.0370154E0,6.3867456E-1,-2.1656454E-2,-2.9565787E-1,2.833518E-1,-1.7710598E-2,3.9192122E-1,3.917001E-1,2.6622713E-1,6.926564E-1,6.690244E-2,-2.0678326E-1,4.4281565E-2,4.127857E-1,2.971865E-1,5.4719217E-2,9.2231727E-1,2.221513E-1,-1.0356124E-1,4.1263783E-1,-2.957516E-1,-2.966615E-1,3.406643E-1,6.1878633E-1,-5.154641E-1,-2.8408144E-2,-2.9922867E-1,3.1671997E-2,-1.8514125E-2,2.9680318E-1,-4.4294298E-1,-1.1560432E-1,9.483623E-2,3.5650337E-1,-4.1578272E-3,2.9584674E-2,-4.4830527E-2,1.109998E-1,-3.646393E-2,-4.764933E-1,7.006898E-2,5.41935E-3,-6.1851148E-2,3.0487925E-1,-3.6113387E-1,1.2198091E-1,2.9407054E-1,3.0162403E-2,-4.2325072E-2,-3.1583142E-1],"split_indices":[29,10,26,21,6,25,6,15,19,28,24,28,0,29,6,0,6,0,0,24,6,0,24,12,0,0,12,0,0,29,0,23,29,6,24,0,22,0,0,0,0,0,12,0,0,0,16,0,0,0,0,0,0,0,0,0,0,0,0,0,0,0,0],"split_type":[0,0,0,0,0,0,0,0,0,0,0,0,0,0,0,0,0,0,0,0,0,0,0,0,0,0,0,0,0,0,0,0,0,0,0,0,0,0,0,0,0,0,0,0,0,0,0,0,0,0,0,0,0,0,0,0,0,0,0,0,0,0,0],"sum_hessian":[6.6827163E3,6.658381E3,2.4335815E1,6.62491E3,3.347067E1,1.1868202E1,1.2467613E1,6.6209526E3,3.957234E0,2.6992918E1,6.4777517E0,7.9126835E0,3.955519E0,6.5525956E0,5.915018E0,4.7093203E3,1.9116327E3,2.7180617E0,1.2391722E0,2.364741E1,3.345508E0,3.9759426E0,2.501809E0,6.771523E0,1.1411604E0,1.8157517E0,2.1397674E0,5.4532566E0,1.0993389E0,3.979808E0,1.93521E0,4.434402E3,2.7491833E2,1.25286064E2,1.7863467E3,1.7233654E1,6.4137564E0,2.3394382E0,1.0060699E0,1.0805773E0,1.4212317E0,1.3743961E0,5.397127E0,1.1061432E0,1.033624E0,1.482181E0,2.4976273E0,4.000639E3,4.3376294E2,2.581914E2,1.6726933E1,1.2072908E2,4.556981E0,1.7433714E2,1.6120095E3,1.407017E1,3.163483E0,4.976179E0,1.4375771E0,3.1616325E0,2.2354944E0,1.2521397E0,1.2454876E0],"tree_param":{"num_deleted":"0","num_feature":"30","num_nodes":"63","size_leaf_vector":"0"}},{"base_weights":[4.3896318E-4,5.493751E-2,-3.5949335E-3,8.942594E-2,-2.3035856E-1,3.5479364E-1,-5.5794595E-3,4.4611845E-2,2.7930528E-1,-6.6913486E-1,8.333671E-2,-5.9838975E-3,6.7686623E-1,-2.7899185E-1,-1.3897823E-3,5.222143E-2,-7.57654E-1,1.1727451E-1,9.146323E-1,-2.9640052E-1,-1.6423854E0,6.0545385E-1,-1.4712512E-1,4.3516767E-1,-5.649006E-1,7.4173486E-1,-1.8047005E-1,-1.9547737E-1,-9.244632E-1,5.960623E-1,-2.5087649E-3,3.3848614E-2,4.4544718E-1,2.0846868E-1,-1.291534E0,1.0662545E0,6.1941627E-2,-1.1457468E0,-7.0507064E-2,-1.8502686E0,-5.6092936E-1,7.260318E-1,1.8789602E-2,-9.3195206E-1,-2.6785536E-2,-6.891824E-2,9.186033E-1,-1.0953927E0,8.307256E-1,1.0487061E-1,9.3573684E-1,-2.739338E-1,3.5061198E-1,-4.6672437E-1,-1.4909722E0,-1.9273011E-1,9.281679E-1,8.003981E-1,-3.3516334E-3,7.046863E-2,-1.4762318E-1,6.669634E-1,-4.1288337E-1,2.1314532E-2,6.1421883E-1,-1.647905E0,-2.3484905E-1,1.120783E0,3.973958E-1,-6.454754E-1,7.043105E-1,-2.6897183E-1,-1.4453205E0,-6.55839E-1,2.622157E-1,9.683248E-1,3.6032355E-1,-1.7481895E-1,5.498982E-1,3.9336666E-1,-3.2316598E-1,2.2452615E-1,1.0314822E0,3.31835E-1,-1.5110676E0,4.9686775E-1,-7.195402E-1,5.732531E-1,1.1810362E0,-9.890251E-2,-5.253536E-1,7.4199975E-1,-2.9408792E-1,-1.1692572E0,7.892528E-2,-1.3745704E0,7.316217E-1,4.18971E-1,1.1517724E0,3.2450223E-1,9.7192353E-1,-4.1904286E-1,-2.134617E-3],"categories":[],"categories_nodes":[],"categories_segments":[],"categories_sizes":[],"default_left":[1,1,1,1,1,1,1,1,1,1,1,1,1,1,1,1,0,1,1,1,1,1,1,1,1,1,0,1,1,1,1,1,1,1,1,1,1,1,1,0,0,1,0,0,1,1,1,1,0,1,1,1,1,1,0,1,1,1,1,0,0,0,0,0,0,0,0,0,0,0,0,0,0,0,0,0,0,0,0,0,0,0,0,0,0,0,0,0,0,0,0,0,0,0,0,0,0,0,0,0,0,0,0],"id":42,"left_children":[1,3,5,7,9,11,13,15,17,19,21,23,25,27,29,31,-1,33,35,37,39,41,43,45,47,49,-1,51,53,55,57,59,61,63,65,67,69,71,73,-1,-1,75,-1,-1,77,79,81,83,-1,85,87,89,91,93,-1,95,97,99,101,-1,-1,-1,-1,-1,-1,-1,-1,-1,-1,-1,-1,-1,-1,-1,-1,-1,-1,-1,-1,-1,-1,-1,-1,-1,-1,-1,-1,-1,-1,-1,-1,-1,-1,-1,-1,-1,-1,-1,-1,-1,-1,-1,-1],"loss_changes":[1.4687723E0,4.551052E0,4.426347E0,3.4891195E0,6.929269E0,3.986351E0,7.087386E0,2.0793173E0,7.9618964E0,7.1054974E0,3.6999426E0,4.4759283E0,1.1413746E0,4.8529544E0,4.076278E0,2.3828807E0,0E0,8.44072E0,1.9742966E0,3.0568311E0,2.155981E-1,6.502402E-1,2.0172868E0,2.53752E0,6.8351536E0,2.0069027E0,0E0,3.692763E0,2.0086336E0,3.1648488E0,4.1204486E0,2.124863E0,3.0767365E0,4.5885687E0,1.1214714E0,4.1042328E-2,2.0197506E0,4.9642992E-1,2.895291E0,0E0,0E0,3.3854723E-1,0E0,0E0,1.7845776E0,8.206427E-1,1.799159E-1,4.197522E0,0E0,2.0070782E0,4.7294426E-1,3.202941E0,2.9898777E0,2.861588E0,0E0,5.5996304E0,4.503069E-1,2.058034E-1,3.0746312E0,0E0,0E0,0E0,0E0,0E0,0E0,0E0,0E0,0E0,0E0,0E0,0E0,0E0,0E0,0E0,0E0,0E0,0E0,0E0,0E0,0E0,0E0,0E0,0E0,0E0,0E0,0E0,0E0,0E0,0E0,0E0,0E0,0E0,0E0,0E0,0E0,0E0,0E0,0E0,0E0,0E0,0E0,0E0,0E0],"parents":[2147483647,0,0,1,1,2,2,3,3,4,4,5,5,6,6,7,7,8,8,9,9,10,10,11,11,12,12,13,13,14,14,15,15,17,17,18,18,19,19,20,20,21,21,22,22,23,23,24,24,25,25,27,27,28,28,29,29,30,30,31,31,32,32,33,33,34,34,35,35,36,36,37,37,38,38,41,41,44,44,45,45,46,46,47,47,49,49,50,50,51,51,52,52,53,53,55,55,56,56,57,57,58,58],"right_children":[2,4,6,8,10,12,14,16,18,20,22,24,26,28,30,32,-1,34,36,38,40,42,44,46,48,50,-1,52,54,56,58,60,62,64,66,68,70,72,74,-1,-1,76,-1,-1,78,80,82,84,-1,86,88,90,92,94,-1,96,98,100,102,-1,-1,-1,-1,-1,-1,-1,-1,-1,-1,-1,-1,-1,-1,-1,-1,-1,-1,-1,-1,-1,-1,-1,-1,-1,-1,-1,-1,-1,-1,-1,-1,-1,-1,-1,-1,-1,-1,-1,-1,-1,-1,-1,-1],"split_conditions":[-3.292852E-1,-1.7885923E-1,-1.8598339E-1,-3.3710796E-1,-1.5380508E-1,-1.8764326E-1,-1.8208015E-1,8.1117356E-1,-3.000474E-1,-3.3661902E-1,-1.7983773E-1,-1.8875793E-1,-1.5675461E-1,-1.8231542E-1,-3.5633957E-1,-1.7815265E-1,-2.2729622E-1,-2.9270488E-1,-2.2907937E-1,-3.2758352E-1,-1.7767444E-1,-2.6179367E-1,-1.269021E-1,-1.8959941E-1,-3.4554577E-1,-3.5186717E-1,-5.414102E-2,-1.8261798E-1,-1.74301E-1,-3.5406923E-1,-1.8192881E-1,-1.8115775E-1,-2.519701E-1,-3.1923062E-1,-2.896911E-1,-3.301001E-1,-2.6768768E-1,-3.4536523E-1,-3.787992E-1,-5.550806E-1,-1.6827881E-1,-3.3890063E-1,5.636881E-3,-2.7958563E-1,-2.0843276E-1,-1.9289438E-1,8.1384397E-1,-3.678054E-1,2.4921769E-1,-4.0305638E-1,-1.8093438E-1,-1.8369642E-1,-2.2907937E-1,4.2901474E-1,-4.4729167E-1,-3.0168843E-1,-6.8756506E-2,-1.9245256E-1,-3.283617E-1,2.1140588E-2,-4.4286955E-2,2.0008902E-1,-1.23865016E-1,6.3943597E-3,1.8426566E-1,-4.943715E-1,-7.045472E-2,3.362349E-1,1.19218744E-1,-1.9364263E-1,2.1129315E-1,-8.069155E-2,-4.3359616E-1,-1.9675171E-1,7.866471E-2,2.9049745E-1,1.0809707E-1,-5.2445687E-2,1.6496947E-1,1.1801001E-1,-9.69498E-2,6.7357846E-2,3.0944467E-1,9.955051E-2,-4.533203E-1,1.4906032E-1,-2.1586207E-1,1.7197594E-1,3.5431087E-1,-2.9670754E-2,-1.576061E-1,2.2259994E-1,-8.822638E-2,-3.5077715E-1,2.3677586E-2,-4.1237113E-1,2.1948652E-1,1.2569131E-1,3.4553173E-1,9.735067E-2,2.9157707E-1,-1.2571286E-1,-6.403851E-4],"split_indices":[12,28,23,12,28,23,23,25,24,12,5,23,11,23,24,11,0,6,16,24,23,24,22,23,24,22,0,23,11,6,23,23,22,24,6,12,28,12,17,0,0,12,0,0,24,27,8,6,0,10,11,23,16,8,0,12,13,26,12,0,0,0,0,0,0,0,0,0,0,0,0,0,0,0,0,0,0,0,0,0,0,0,0,0,0,0,0,0,0,0,0,0,0,0,0,0,0,0,0,0,0,0,0],"split_type":[0,0,0,0,0,0,0,0,0,0,0,0,0,0,0,0,0,0,0,0,0,0,0,0,0,0,0,0,0,0,0,0,0,0,0,0,0,0,0,0,0,0,0,0,0,0,0,0,0,0,0,0,0,0,0,0,0,0,0,0,0,0,0,0,0,0,0,0,0,0,0,0,0,0,0,0,0,0,0,0,0,0,0,0,0,0,0,0,0,0,0,0,0,0,0,0,0,0,0,0,0,0,0],"sum_hessian":[6.6791523E3,4.594393E2,6.219713E3,4.1050177E2,4.893754E1,3.327211E1,6.186441E3,3.331167E2,7.7385086E1,1.9929039E1,2.9008501E1,1.6155996E1,1.7116116E1,9.237823E1,6.0940625E3,3.3091284E2,2.2038383E0,6.260356E1,1.4781523E1,1.5353515E1,4.575524E0,8.38498E0,2.062352E1,9.15298E0,7.003016E0,1.6037508E1,1.0786078E0,8.294873E1,9.429501E0,1.039844E1,6.083664E3,3.1717926E2,1.3733589E1,5.959774E1,3.0058217E0,1.2337295E1,2.4442282E0,2.3700807E0,1.2983434E1,3.2415173E0,1.3340067E0,6.758365E0,